<?xml version="1.0"?>
<opencv_storage>
<cascade>
  <stageType>BOOST</stageType>
  <featureType>HAAR</featureType>
  <height>24</height>
  <width>24</width>
  <stageParams>
    <boostType>GAB</boostType>
    <minHitRate>9.9500000476837158e-01</minHitRate>
    <maxFalseAlarm>5.0000000000000000e-01</maxFalseAlarm>
    <weightTrimRate>9.4999998807907104e-01</weightTrimRate>
    <maxDepth>1</maxDepth>
    <maxWeakCount>100</maxWeakCount></stageParams>
  <featureParams>
    <maxCatCount>0</maxCatCount>
    <featSize>1</featSize>
    <mode>BASIC</mode></featureParams>
  <stageNum>20</stageNum>
  <stages>
    <!-- stage 0 -->
    <_>
      <maxWeakCount>1</maxWeakCount>
      <stageThreshold>9.8225092887878418e-01</stageThreshold>
      <weakClassifiers>
        <_>
          <internalNodes>
            0 -1 5 -2.8086483478546143e-01</internalNodes>
          <leafValues>
            9.8225092887878418e-01 -1.</leafValues></_></weakClassifiers></_>
    <!-- stage 1 -->
    <_>
      <maxWeakCount>1</maxWeakCount>
      <stageThreshold>9.7746479511260986e-01</stageThreshold>
      <weakClassifiers>
        <_>
          <internalNodes>
            0 -1 43 -3.4559923224151134e-03</internalNodes>
          <leafValues>
            9.7746479511260986e-01 -1.</leafValues></_></weakClassifiers></_>
    <!-- stage 2 -->
    <_>
      <maxWeakCount>6</maxWeakCount>
      <stageThreshold>3.3401945233345032e-01</stageThreshold>
      <weakClassifiers>
        <_>
          <internalNodes>
            0 -1 19 2.2926528006792068e-02</internalNodes>
          <leafValues>
            9.4690966606140137e-01 -1.</leafValues></_>
        <_>
          <internalNodes>
            0 -1 25 -1.3530500233173370e-01</internalNodes>
          <leafValues>
            -6.0241657495498657e-01 8.4638553857803345e-01</leafValues></_>
        <_>
          <internalNodes>
            0 -1 31 1.6202235594391823e-02</internalNodes>
          <leafValues>
            5.8208978176116943e-01 -7.9804497957229614e-01</leafValues></_>
        <_>
          <internalNodes>
            0 -1 55 3.3197879791259766e-02</internalNodes>
          <leafValues>
            -4.2182636260986328e-01 9.4793003797531128e-01</leafValues></_>
        <_>
          <internalNodes>
            0 -1 38 7.6516858825925738e-05</internalNodes>
          <leafValues>
            -5.2345144748687744e-01 6.4611959457397461e-01</leafValues></_>
        <_>
          <internalNodes>
            0 -1 71 3.1906075309962034e-03</internalNodes>
          <leafValues>
            3.6309275031089783e-01 -8.7240576744079590e-01</leafValues></_></weakClassifiers></_>
    <!-- stage 3 -->
    <_>
      <maxWeakCount>2</maxWeakCount>
      <stageThreshold>1.7352006435394287e+00</stageThreshold>
      <weakClassifiers>
        <_>
          <internalNodes>
            0 -1 48 6.6478841472417116e-04</internalNodes>
          <leafValues>
            9.4994038343429565e-01 -8.5000002384185791e-01</leafValues></_>
        <_>
          <internalNodes>
            0 -1 41 -2.4955987930297852e-02</internalNodes>
          <leafValues>
            7.8526020050048828e-01 -9.8793786764144897e-01</leafValues></_></weakClassifiers></_>
    <!-- stage 4 -->
    <_>
      <maxWeakCount>3</maxWeakCount>
      <stageThreshold>1.1135269403457642e+00</stageThreshold>
      <weakClassifiers>
        <_>
          <internalNodes>
            0 -1 61 8.7399296462535858e-03</internalNodes>
          <leafValues>
            9.4613862037658691e-01 -1.</leafValues></_>
        <_>
          <internalNodes>
            0 -1 36 7.5423646194394678e-05</internalNodes>
          <leafValues>
            -1.3686527311801910e-01 9.1844844818115234e-01</leafValues></_>
        <_>
          <internalNodes>
            0 -1 49 -6.4175678417086601e-03</internalNodes>
          <leafValues>
            -7.5106006860733032e-01 6.1147755384445190e-01</leafValues></_></weakClassifiers></_>
    <!-- stage 5 -->
    <_>
      <maxWeakCount>3</maxWeakCount>
      <stageThreshold>8.9806509017944336e-01</stageThreshold>
      <weakClassifiers>
        <_>
          <internalNodes>
            0 -1 4 6.3543595373630524e-02</internalNodes>
          <leafValues>
            9.4382911920547485e-01 -1.</leafValues></_>
        <_>
          <internalNodes>
            0 -1 59 -8.3539597690105438e-03</internalNodes>
          <leafValues>
            -7.5799447298049927e-01 8.1258207559585571e-01</leafValues></_>
        <_>
          <internalNodes>
            0 -1 52 3.8329286326188594e-05</internalNodes>
          <leafValues>
            -4.8072576522827148e-01 7.1223050355911255e-01</leafValues></_></weakClassifiers></_>
    <!-- stage 6 -->
    <_>
      <maxWeakCount>5</maxWeakCount>
      <stageThreshold>4.9929144978523254e-01</stageThreshold>
      <weakClassifiers>
        <_>
          <internalNodes>
            0 -1 45 1.4597395434975624e-02</internalNodes>
          <leafValues>
            9.4455444812774658e-01 -8.7500000000000000e-01</leafValues></_>
        <_>
          <internalNodes>
            0 -1 70 1.2036017142236233e-02</internalNodes>
          <leafValues>
            7.0443533360958099e-02 9.5075285434722900e-01</leafValues></_>
        <_>
          <internalNodes>
            0 -1 10 -9.4724863767623901e-02</internalNodes>
          <leafValues>
            -4.9028554558753967e-01 6.4496934413909912e-01</leafValues></_>
        <_>
          <internalNodes>
            0 -1 46 -2.0742540073115379e-04</internalNodes>
          <leafValues>
            3.7678068876266479e-01 -8.7044936418533325e-01</leafValues></_>
        <_>
          <internalNodes>
            0 -1 33 3.6926537752151489e-02</internalNodes>
          <leafValues>
            -4.0220168232917786e-01 7.9381239414215088e-01</leafValues></_></weakClassifiers></_>
    <!-- stage 7 -->
    <_>
      <maxWeakCount>6</maxWeakCount>
      <stageThreshold>8.1980180740356445e-01</stageThreshold>
      <weakClassifiers>
        <_>
          <internalNodes>
            0 -1 1 -2.1523347496986389e-01</internalNodes>
          <leafValues>
            -5.0000000000000000e-01 9.5129740238189697e-01</leafValues></_>
        <_>
          <internalNodes>
            0 -1 12 -2.3180838674306870e-02</internalNodes>
          <leafValues>
            -6.2050127983093262e-01 8.0477750301361084e-01</leafValues></_>
        <_>
          <internalNodes>
            0 -1 39 9.0862442448269576e-05</internalNodes>
          <leafValues>
            -3.6736300587654114e-01 7.6392060518264771e-01</leafValues></_>
        <_>
          <internalNodes>
            0 -1 47 2.1397972479462624e-02</internalNodes>
          <leafValues>
            -3.7753409147262573e-01 7.4356734752655029e-01</leafValues></_>
        <_>
          <internalNodes>
            0 -1 37 -2.8307987377047539e-03</internalNodes>
          <leafValues>
            -6.2052929401397705e-01 5.0677794218063354e-01</leafValues></_>
        <_>
          <internalNodes>
            0 -1 15 9.9485568702220917e-02</internalNodes>
          <leafValues>
            -3.9397662878036499e-01 8.0360746383666992e-01</leafValues></_></weakClassifiers></_>
    <!-- stage 8 -->
    <_>
      <maxWeakCount>5</maxWeakCount>
      <stageThreshold>8.1065398454666138e-01</stageThreshold>
      <weakClassifiers>
        <_>
          <internalNodes>
            0 -1 58 4.7131933271884918e-02</internalNodes>
          <leafValues>
            9.4382911920547485e-01 -1.</leafValues></_>
        <_>
          <internalNodes>
            0 -1 18 1.1147022247314453e-02</internalNodes>
          <leafValues>
            8.1442320346832275e-01 -5.3509378433227539e-01</leafValues></_>
        <_>
          <internalNodes>
            0 -1 60 2.0889908075332642e-02</internalNodes>
          <leafValues>
            -1.5792286396026611e-01 9.4600129127502441e-01</leafValues></_>
        <_>
          <internalNodes>
            0 -1 22 1.0084278881549835e-01</internalNodes>
          <leafValues>
            -2.5506865978240967e-01 8.0175662040710449e-01</leafValues></_>
        <_>
          <internalNodes>
            0 -1 32 -5.1389329135417938e-02</internalNodes>
          <leafValues>
            9.2743861675262451e-01 -2.4191510677337646e-01</leafValues></_></weakClassifiers></_>
    <!-- stage 9 -->
    <_>
      <maxWeakCount>2</maxWeakCount>
      <stageThreshold>1.6875190734863281e+00</stageThreshold>
      <weakClassifiers>
        <_>
          <internalNodes>
            0 -1 20 2.4862758815288544e-02</internalNodes>
          <leafValues>
            9.4301545619964600e-01 -8.6666667461395264e-01</leafValues></_>
        <_>
          <internalNodes>
            0 -1 53 1.1721428483724594e-02</internalNodes>
          <leafValues>
            7.4450361728668213e-01 -8.7100875377655029e-01</leafValues></_></weakClassifiers></_>
    <!-- stage 10 -->
    <_>
      <maxWeakCount>6</maxWeakCount>
      <stageThreshold>2.2756719589233398e-01</stageThreshold>
      <weakClassifiers>
        <_>
          <internalNodes>
            0 -1 35 7.0651299320161343e-03</internalNodes>
          <leafValues>
            9.4378465414047241e-01 -8.7096774578094482e-01</leafValues></_>
        <_>
          <internalNodes>
            0 -1 26 -1.2786620855331421e-01</internalNodes>
          <leafValues>
            -6.4108002185821533e-01 7.9894208908081055e-01</leafValues></_>
        <_>
          <internalNodes>
            0 -1 16 8.0838017165660858e-02</internalNodes>
          <leafValues>
            -2.2891928255558014e-01 8.5165625810623169e-01</leafValues></_>
        <_>
          <internalNodes>
            0 -1 54 4.4708803296089172e-02</internalNodes>
          <leafValues>
            -2.4357703328132629e-01 8.2572996616363525e-01</leafValues></_>
        <_>
          <internalNodes>
            0 -1 6 -4.3524768948554993e-01</internalNodes>
          <leafValues>
            4.4452688097953796e-01 -6.6722077131271362e-01</leafValues></_>
        <_>
          <internalNodes>
            0 -1 24 1.0806868784129620e-02</internalNodes>
          <leafValues>
            -3.7544244527816772e-01 7.5880521535873413e-01</leafValues></_></weakClassifiers></_>
    <!-- stage 11 -->
    <_>
      <maxWeakCount>2</maxWeakCount>
      <stageThreshold>1.7913750410079956e+00</stageThreshold>
      <weakClassifiers>
        <_>
          <internalNodes>
            0 -1 8 -7.8249284997582436e-03</internalNodes>
          <leafValues>
            9.5933014154434204e-01 -1.</leafValues></_>
        <_>
          <internalNodes>
            0 -1 9 -6.0443289577960968e-02</internalNodes>
          <leafValues>
            -9.2163801193237305e-01 8.3204489946365356e-01</leafValues></_></weakClassifiers></_>
    <!-- stage 12 -->
    <_>
      <maxWeakCount>2</maxWeakCount>
      <stageThreshold>1.7068073749542236e+00</stageThreshold>
      <weakClassifiers>
        <_>
          <internalNodes>
            0 -1 2 1.4446958899497986e-01</internalNodes>
          <leafValues>
            9.4382911920547485e-01 -1.</leafValues></_>
        <_>
          <internalNodes>
            0 -1 42 -1.2427431344985962e-01</internalNodes>
          <leafValues>
            -9.8568171262741089e-01 7.6297825574874878e-01</leafValues></_></weakClassifiers></_>
    <!-- stage 13 -->
    <_>
      <maxWeakCount>3</maxWeakCount>
      <stageThreshold>1.1746886968612671e+00</stageThreshold>
      <weakClassifiers>
        <_>
          <internalNodes>
            0 -1 17 3.3133387565612793e-02</internalNodes>
          <leafValues>
            9.4839221239089966e-01 -8.4210526943206787e-01</leafValues></_>
        <_>
          <internalNodes>
            0 -1 0 -5.5554337799549103e-02</internalNodes>
          <leafValues>
            -5.6801319122314453e-01 8.3604717254638672e-01</leafValues></_>
        <_>
          <internalNodes>
            0 -1 69 2.4559486657381058e-02</internalNodes>
          <leafValues>
            -4.0096828341484070e-01 7.9430967569351196e-01</leafValues></_></weakClassifiers></_>
    <!-- stage 14 -->
    <_>
      <maxWeakCount>5</maxWeakCount>
      <stageThreshold>7.8793692588806152e-01</stageThreshold>
      <weakClassifiers>
        <_>
          <internalNodes>
            0 -1 14 -5.0904214382171631e-02</internalNodes>
          <leafValues>
            -1. 9.4768130779266357e-01</leafValues></_>
        <_>
          <internalNodes>
            0 -1 3 -2.3028278723359108e-02</internalNodes>
          <leafValues>
            -8.4476703405380249e-01 7.9906618595123291e-01</leafValues></_>
        <_>
          <internalNodes>
            0 -1 30 2.0557013340294361e-04</internalNodes>
          <leafValues>
            4.7527298331260681e-01 -8.4863507747650146e-01</leafValues></_>
        <_>
          <internalNodes>
            0 -1 64 -8.2776829600334167e-02</internalNodes>
          <leafValues>
            8.8232117891311646e-01 -4.0595155954360962e-01</leafValues></_>
        <_>
          <internalNodes>
            0 -1 13 1.1154567619087175e-04</internalNodes>
          <leafValues>
            -4.6170088648796082e-01 6.1570119857788086e-01</leafValues></_></weakClassifiers></_>
    <!-- stage 15 -->
    <_>
      <maxWeakCount>7</maxWeakCount>
      <stageThreshold>5.0829493999481201e-01</stageThreshold>
      <weakClassifiers>
        <_>
          <internalNodes>
            0 -1 67 -1.8561923503875732e-01</internalNodes>
          <leafValues>
            -8.5714286565780640e-01 9.4147884845733643e-01</leafValues></_>
        <_>
          <internalNodes>
            0 -1 7 -1.0627952218055725e-01</internalNodes>
          <leafValues>
            -1.6082213819026947e-01 8.3273077011108398e-01</leafValues></_>
        <_>
          <internalNodes>
            0 -1 63 -3.3135543344542384e-04</internalNodes>
          <leafValues>
            -5.5422484874725342e-01 5.2676630020141602e-01</leafValues></_>
        <_>
          <internalNodes>
            0 -1 27 1.1979602277278900e-01</internalNodes>
          <leafValues>
            -2.5730192661285400e-01 9.9718987941741943e-01</leafValues></_>
        <_>
          <internalNodes>
            0 -1 21 1.1230539530515671e-04</internalNodes>
          <leafValues>
            -4.5050695538520813e-01 5.3338927030563354e-01</leafValues></_>
        <_>
          <internalNodes>
            0 -1 51 -2.2971446160227060e-03</internalNodes>
          <leafValues>
            -6.3820397853851318e-01 3.9739647507667542e-01</leafValues></_>
        <_>
          <internalNodes>
            0 -1 40 6.3365111127495766e-03</internalNodes>
          <leafValues>
            -4.3701142072677612e-01 5.8217895030975342e-01</leafValues></_></weakClassifiers></_>
    <!-- stage 16 -->
    <_>
      <maxWeakCount>2</maxWeakCount>
      <stageThreshold>1.6914293766021729e+00</stageThreshold>
      <weakClassifiers>
        <_>
          <internalNodes>
            0 -1 50 1.3421854004263878e-02</internalNodes>
          <leafValues>
            9.4532489776611328e-01 -8.7878787517547607e-01</leafValues></_>
        <_>
          <internalNodes>
            0 -1 23 -5.7286399602890015e-01</internalNodes>
          <leafValues>
            -9.1320860385894775e-01 7.4610447883605957e-01</leafValues></_></weakClassifiers></_>
    <!-- stage 17 -->
    <_>
      <maxWeakCount>7</maxWeakCount>
      <stageThreshold>8.7729078531265259e-01</stageThreshold>
      <weakClassifiers>
        <_>
          <internalNodes>
            0 -1 34 2.9627593234181404e-02</internalNodes>
          <leafValues>
            9.4229251146316528e-01 -1.</leafValues></_>
        <_>
          <internalNodes>
            0 -1 29 1.1367107927799225e-01</internalNodes>
          <leafValues>
            8.5957759618759155e-01 -4.9241903424263000e-01</leafValues></_>
        <_>
          <internalNodes>
            0 -1 28 4.7085564583539963e-02</internalNodes>
          <leafValues>
            -1.0934683680534363e-01 9.1216075420379639e-01</leafValues></_>
        <_>
          <internalNodes>
            0 -1 56 1.0765294064185582e-05</internalNodes>
          <leafValues>
            -5.5653035640716553e-01 5.3346830606460571e-01</leafValues></_>
        <_>
          <internalNodes>
            0 -1 68 -3.8249231874942780e-03</internalNodes>
          <leafValues>
            8.7124681472778320e-01 -2.8617787361145020e-01</leafValues></_>
        <_>
          <internalNodes>
            0 -1 65 1.7598619684576988e-02</internalNodes>
          <leafValues>
            -4.2484638094902039e-01 7.6714009046554565e-01</leafValues></_>
        <_>
          <internalNodes>
            0 -1 62 1.3606935739517212e-02</internalNodes>
          <leafValues>
            -3.4700152277946472e-01 7.1432012319564819e-01</leafValues></_></weakClassifiers></_>
    <!-- stage 18 -->
    <_>
      <maxWeakCount>2</maxWeakCount>
      <stageThreshold>1.7370345592498779e+00</stageThreshold>
      <weakClassifiers>
        <_>
          <internalNodes>
            0 -1 11 2.6806158944964409e-02</internalNodes>
          <leafValues>
            9.4459831714630127e-01 -1.</leafValues></_>
        <_>
          <internalNodes>
            0 -1 72 3.3809160813689232e-03</internalNodes>
          <leafValues>
            7.9243624210357666e-01 -9.8886287212371826e-01</leafValues></_></weakClassifiers></_>
    <!-- stage 19 -->
    <_>
      <maxWeakCount>3</maxWeakCount>
      <stageThreshold>1.0042878389358521e+00</stageThreshold>
      <weakClassifiers>
        <_>
          <internalNodes>
            0 -1 44 2.6885108090937138e-03</internalNodes>
          <leafValues>
            9.4601035118103027e-01 -6.8421053886413574e-01</leafValues></_>
        <_>
          <internalNodes>
            0 -1 57 -1.0216580331325531e-01</internalNodes>
          <leafValues>
            7.6038569211959839e-01 -8.5752552747726440e-01</leafValues></_>
        <_>
          <internalNodes>
            0 -1 66 1.0356539860367775e-02</internalNodes>
          <leafValues>
            -2.1728935837745667e-01 9.2811256647109985e-01</leafValues></_></weakClassifiers></_></stages>
  <features>
    <_>
      <rects>
        <_>
          0 0 6 12 -1.</_>
        <_>
          0 6 6 6 2.</_></rects>
      <tilted>0</tilted></_>
    <_>
      <rects>
        <_>
          0 0 6 24 -1.</_>
        <_>
          0 12 6 12 2.</_></rects>
      <tilted>0</tilted></_>
    <_>
      <rects>
        <_>
          0 0 18 6 -1.</_>
        <_>
          9 0 9 6 2.</_></rects>
      <tilted>0</tilted></_>
    <_>
      <rects>
        <_>
          0 0 24 2 -1.</_>
        <_>
          12 0 12 2 2.</_></rects>
      <tilted>0</tilted></_>
    <_>
      <rects>
        <_>
          0 0 21 9 -1.</_>
        <_>
          0 3 21 3 3.</_></rects>
      <tilted>0</tilted></_>
    <_>
      <rects>
        <_>
          0 2 23 22 -1.</_>
        <_>
          0 13 23 11 2.</_></rects>
      <tilted>0</tilted></_>
    <_>
      <rects>
        <_>
          0 2 24 22 -1.</_>
        <_>
          0 13 24 11 2.</_></rects>
      <tilted>0</tilted></_>
    <_>
      <rects>
        <_>
          0 3 6 20 -1.</_>
        <_>
          0 13 6 10 2.</_></rects>
      <tilted>0</tilted></_>
    <_>
      <rects>
        <_>
          0 8 10 16 -1.</_>
        <_>
          0 16 10 8 2.</_></rects>
      <tilted>0</tilted></_>
    <_>
      <rects>
        <_>
          0 13 24 2 -1.</_>
        <_>
          8 13 8 2 3.</_></rects>
      <tilted>0</tilted></_>
    <_>
      <rects>
        <_>
          1 0 5 22 -1.</_>
        <_>
          1 11 5 11 2.</_></rects>
      <tilted>0</tilted></_>
    <_>
      <rects>
        <_>
          1 0 20 1 -1.</_>
        <_>
          11 0 10 1 2.</_></rects>
      <tilted>0</tilted></_>
    <_>
      <rects>
        <_>
          1 2 22 4 -1.</_>
        <_>
          1 2 11 2 2.</_>
        <_>
          12 4 11 2 2.</_></rects>
      <tilted>0</tilted></_>
    <_>
      <rects>
        <_>
          2 0 2 2 -1.</_>
        <_>
          3 0 1 2 2.</_></rects>
      <tilted>0</tilted></_>
    <_>
      <rects>
        <_>
          2 0 5 12 -1.</_>
        <_>
          2 4 5 4 3.</_></rects>
      <tilted>0</tilted></_>
    <_>
      <rects>
        <_>
          2 0 15 24 -1.</_>
        <_>
          7 0 5 24 3.</_></rects>
      <tilted>0</tilted></_>
    <_>
      <rects>
        <_>
          2 1 15 16 -1.</_>
        <_>
          7 1 5 16 3.</_></rects>
      <tilted>0</tilted></_>
    <_>
      <rects>
        <_>
          2 3 8 9 -1.</_>
        <_>
          2 6 8 3 3.</_></rects>
      <tilted>0</tilted></_>
    <_>
      <rects>
        <_>
          2 9 12 8 -1.</_>
        <_>
          2 9 6 4 2.</_>
        <_>
          8 13 6 4 2.</_></rects>
      <tilted>0</tilted></_>
    <_>
      <rects>
        <_>
          2 14 16 10 -1.</_>
        <_>
          10 14 8 10 2.</_></rects>
      <tilted>0</tilted></_>
    <_>
      <rects>
        <_>
          2 17 18 4 -1.</_>
        <_>
          8 17 6 4 3.</_></rects>
      <tilted>0</tilted></_>
    <_>
      <rects>
        <_>
          3 0 2 2 -1.</_>
        <_>
          4 0 1 2 2.</_></rects>
      <tilted>0</tilted></_>
    <_>
      <rects>
        <_>
          3 0 15 16 -1.</_>
        <_>
          8 0 5 16 3.</_></rects>
      <tilted>0</tilted></_>
    <_>
      <rects>
        <_>
          3 0 17 22 -1.</_>
        <_>
          3 11 17 11 2.</_></rects>
      <tilted>0</tilted></_>
    <_>
      <rects>
        <_>
          3 3 6 10 -1.</_>
        <_>
          5 3 2 10 3.</_></rects>
      <tilted>0</tilted></_>
    <_>
      <rects>
        <_>
          4 0 18 23 -1.</_>
        <_>
          13 0 9 23 2.</_></rects>
      <tilted>0</tilted></_>
    <_>
      <rects>
        <_>
          4 0 18 24 -1.</_>
        <_>
          13 0 9 24 2.</_></rects>
      <tilted>0</tilted></_>
    <_>
      <rects>
        <_>
          4 1 9 23 -1.</_>
        <_>
          7 1 3 23 3.</_></rects>
      <tilted>0</tilted></_>
    <_>
      <rects>
        <_>
          4 2 9 13 -1.</_>
        <_>
          7 2 3 13 3.</_></rects>
      <tilted>0</tilted></_>
    <_>
      <rects>
        <_>
          4 3 18 21 -1.</_>
        <_>
          13 3 9 21 2.</_></rects>
      <tilted>0</tilted></_>
    <_>
      <rects>
        <_>
          5 0 12 2 -1.</_>
        <_>
          5 1 12 1 2.</_></rects>
      <tilted>0</tilted></_>
    <_>
      <rects>
        <_>
          5 0 14 6 -1.</_>
        <_>
          5 2 14 2 3.</_></rects>
      <tilted>0</tilted></_>
    <_>
      <rects>
        <_>
          5 1 9 23 -1.</_>
        <_>
          8 1 3 23 3.</_></rects>
      <tilted>0</tilted></_>
    <_>
      <rects>
        <_>
          5 3 9 15 -1.</_>
        <_>
          8 3 3 15 3.</_></rects>
      <tilted>0</tilted></_>
    <_>
      <rects>
        <_>
          5 10 7 9 -1.</_>
        <_>
          5 13 7 3 3.</_></rects>
      <tilted>0</tilted></_>
    <_>
      <rects>
        <_>
          5 22 16 2 -1.</_>
        <_>
          13 22 8 2 2.</_></rects>
      <tilted>0</tilted></_>
    <_>
      <rects>
        <_>
          6 0 2 2 -1.</_>
        <_>
          7 0 1 2 2.</_></rects>
      <tilted>0</tilted></_>
    <_>
      <rects>
        <_>
          6 0 12 2 -1.</_>
        <_>
          6 1 12 1 2.</_></rects>
      <tilted>0</tilted></_>
    <_>
      <rects>
        <_>
          6 1 2 1 -1.</_>
        <_>
          7 1 1 1 2.</_></rects>
      <tilted>0</tilted></_>
    <_>
      <rects>
        <_>
          6 3 2 1 -1.</_>
        <_>
          7 3 1 1 2.</_></rects>
      <tilted>0</tilted></_>
    <_>
      <rects>
        <_>
          6 3 8 4 -1.</_>
        <_>
          10 3 4 4 2.</_></rects>
      <tilted>0</tilted></_>
    <_>
      <rects>
        <_>
          6 3 14 12 -1.</_>
        <_>
          6 9 14 6 2.</_></rects>
      <tilted>0</tilted></_>
    <_>
      <rects>
        <_>
          6 9 18 15 -1.</_>
        <_>
          15 9 9 15 2.</_></rects>
      <tilted>0</tilted></_>
    <_>
      <rects>
        <_>
          7 0 14 8 -1.</_>
        <_>
          7 4 14 4 2.</_></rects>
      <tilted>0</tilted></_>
    <_>
      <rects>
        <_>
          7 1 10 2 -1.</_>
        <_>
          7 1 5 1 2.</_>
        <_>
          12 2 5 1 2.</_></rects>
      <tilted>0</tilted></_>
    <_>
      <rects>
        <_>
          7 14 12 7 -1.</_>
        <_>
          13 14 6 7 2.</_></rects>
      <tilted>0</tilted></_>
    <_>
      <rects>
        <_>
          8 0 16 2 -1.</_>
        <_>
          8 1 16 1 2.</_></rects>
      <tilted>0</tilted></_>
    <_>
      <rects>
        <_>
          8 2 12 6 -1.</_>
        <_>
          12 2 4 6 3.</_></rects>
      <tilted>0</tilted></_>
    <_>
      <rects>
        <_>
          9 0 11 2 -1.</_>
        <_>
          9 1 11 1 2.</_></rects>
      <tilted>0</tilted></_>
    <_>
      <rects>
        <_>
          9 0 12 6 -1.</_>
        <_>
          9 2 12 2 3.</_></rects>
      <tilted>0</tilted></_>
    <_>
      <rects>
        <_>
          9 9 6 6 -1.</_>
        <_>
          9 11 6 2 3.</_></rects>
      <tilted>0</tilted></_>
    <_>
      <rects>
        <_>
          9 14 1 10 -1.</_>
        <_>
          9 19 1 5 2.</_></rects>
      <tilted>0</tilted></_>
    <_>
      <rects>
        <_>
          10 0 2 1 -1.</_>
        <_>
          11 0 1 1 2.</_></rects>
      <tilted>0</tilted></_>
    <_>
      <rects>
        <_>
          10 18 10 3 -1.</_>
        <_>
          15 18 5 3 2.</_></rects>
      <tilted>0</tilted></_>
    <_>
      <rects>
        <_>
          11 0 9 14 -1.</_>
        <_>
          14 0 3 14 3.</_></rects>
      <tilted>0</tilted></_>
    <_>
      <rects>
        <_>
          11 1 9 20 -1.</_>
        <_>
          14 1 3 20 3.</_></rects>
      <tilted>0</tilted></_>
    <_>
      <rects>
        <_>
          11 2 2 1 -1.</_>
        <_>
          12 2 1 1 2.</_></rects>
      <tilted>0</tilted></_>
    <_>
      <rects>
        <_>
          11 2 8 20 -1.</_>
        <_>
          11 12 8 10 2.</_></rects>
      <tilted>0</tilted></_>
    <_>
      <rects>
        <_>
          11 4 13 9 -1.</_>
        <_>
          11 7 13 3 3.</_></rects>
      <tilted>0</tilted></_>
    <_>
      <rects>
        <_>
          11 20 10 4 -1.</_>
        <_>
          16 20 5 4 2.</_></rects>
      <tilted>0</tilted></_>
    <_>
      <rects>
        <_>
          12 7 6 17 -1.</_>
        <_>
          14 7 2 17 3.</_></rects>
      <tilted>0</tilted></_>
    <_>
      <rects>
        <_>
          12 14 11 8 -1.</_>
        <_>
          12 18 11 4 2.</_></rects>
      <tilted>0</tilted></_>
    <_>
      <rects>
        <_>
          13 0 6 16 -1.</_>
        <_>
          15 0 2 16 3.</_></rects>
      <tilted>0</tilted></_>
    <_>
      <rects>
        <_>
          14 0 3 3 -1.</_>
        <_>
          14 1 3 1 3.</_></rects>
      <tilted>0</tilted></_>
    <_>
      <rects>
        <_>
          14 0 9 17 -1.</_>
        <_>
          17 0 3 17 3.</_></rects>
      <tilted>0</tilted></_>
    <_>
      <rects>
        <_>
          14 2 9 9 -1.</_>
        <_>
          17 2 3 9 3.</_></rects>
      <tilted>0</tilted></_>
    <_>
      <rects>
        <_>
          15 5 4 16 -1.</_>
        <_>
          15 5 2 8 2.</_>
        <_>
          17 13 2 8 2.</_></rects>
      <tilted>0</tilted></_>
    <_>
      <rects>
        <_>
          16 0 8 14 -1.</_>
        <_>
          16 7 8 7 2.</_></rects>
      <tilted>0</tilted></_>
    <_>
      <rects>
        <_>
          16 1 3 13 -1.</_>
        <_>
          17 1 1 13 3.</_></rects>
      <tilted>0</tilted></_>
    <_>
      <rects>
        <_>
          17 1 6 16 -1.</_>
        <_>
          20 1 3 16 2.</_></rects>
      <tilted>0</tilted></_>
    <_>
      <rects>
        <_>
          18 0 4 22 -1.</_>
        <_>
          20 0 2 22 2.</_></rects>
      <tilted>0</tilted></_>
    <_>
      <rects>
        <_>
          18 18 5 6 -1.</_>
        <_>
          18 21 5 3 2.</_></rects>
      <tilted>0</tilted></_>
    <_>
      <rects>
        <_>
          19 18 3 6 -1.</_>
        <_>
          19 21 3 3 2.</_></rects>
      <tilted>0</tilted></_></features></cascade>
</opencv_storage>
