<?xml version="1.0"?>
<opencv_storage>
<cascade>
  <stageType>BOOST</stageType>
  <featureType>HAAR</featureType>
  <height>24</height>
  <width>24</width>
  <stageParams>
    <boostType>GAB</boostType>
    <minHitRate>9.9500000476837158e-01</minHitRate>
    <maxFalseAlarm>5.0000000000000000e-01</maxFalseAlarm>
    <weightTrimRate>9.4999998807907104e-01</weightTrimRate>
    <maxDepth>1</maxDepth>
    <maxWeakCount>100</maxWeakCount></stageParams>
  <featureParams>
    <maxCatCount>0</maxCatCount>
    <featSize>1</featSize>
    <mode>BASIC</mode></featureParams>
  <stageNum>20</stageNum>
  <stages>
    <!-- stage 0 -->
    <_>
      <maxWeakCount>1</maxWeakCount>
      <stageThreshold>9.5734369754791260e-01</stageThreshold>
      <weakClassifiers>
        <_>
          <internalNodes>
            0 -1 7 -8.7872333824634552e-03</internalNodes>
          <leafValues>
            9.5734369754791260e-01 -1.</leafValues></_></weakClassifiers></_>
    <!-- stage 1 -->
    <_>
      <maxWeakCount>3</maxWeakCount>
      <stageThreshold>9.5569974184036255e-01</stageThreshold>
      <weakClassifiers>
        <_>
          <internalNodes>
            0 -1 1 4.0232606232166290e-02</internalNodes>
          <leafValues>
            9.4790160655975342e-01 -1.</leafValues></_>
        <_>
          <internalNodes>
            0 -1 24 1.7717771697789431e-04</internalNodes>
          <leafValues>
            9.1085499525070190e-01 -8.5381937026977539e-01</leafValues></_>
        <_>
          <internalNodes>
            0 -1 4 1.4231856912374496e-02</internalNodes>
          <leafValues>
            -4.3107134103775024e-01 8.6161756515502930e-01</leafValues></_></weakClassifiers></_>
    <!-- stage 2 -->
    <_>
      <maxWeakCount>3</maxWeakCount>
      <stageThreshold>7.0378154516220093e-01</stageThreshold>
      <weakClassifiers>
        <_>
          <internalNodes>
            0 -1 26 5.1605626940727234e-02</internalNodes>
          <leafValues>
            9.4415020942687988e-01 -1.</leafValues></_>
        <_>
          <internalNodes>
            0 -1 31 -1.8077317625284195e-02</internalNodes>
          <leafValues>
            -7.9208463430404663e-01 8.3032989501953125e-01</leafValues></_>
        <_>
          <internalNodes>
            0 -1 5 -3.6981482990086079e-03</internalNodes>
          <leafValues>
            -7.9295080900192261e-01 5.5171591043472290e-01</leafValues></_></weakClassifiers></_>
    <!-- stage 3 -->
    <_>
      <maxWeakCount>6</maxWeakCount>
      <stageThreshold>5.1670926809310913e-01</stageThreshold>
      <weakClassifiers>
        <_>
          <internalNodes>
            0 -1 64 2.1549750119447708e-02</internalNodes>
          <leafValues>
            9.4134616851806641e-01 -1.</leafValues></_>
        <_>
          <internalNodes>
            0 -1 83 -5.2877012640237808e-03</internalNodes>
          <leafValues>
            -6.5565776824951172e-01 8.1325960159301758e-01</leafValues></_>
        <_>
          <internalNodes>
            0 -1 84 -1.0267292382195592e-03</internalNodes>
          <leafValues>
            -5.3786021471023560e-01 6.5677821636199951e-01</leafValues></_>
        <_>
          <internalNodes>
            0 -1 29 6.0575855895876884e-03</internalNodes>
          <leafValues>
            -5.1753401756286621e-01 6.7662024497985840e-01</leafValues></_>
        <_>
          <internalNodes>
            0 -1 62 -2.8095990419387817e-03</internalNodes>
          <leafValues>
            6.5721291303634644e-01 -5.6507819890975952e-01</leafValues></_>
        <_>
          <internalNodes>
            0 -1 77 -9.1512314975261688e-03</internalNodes>
          <leafValues>
            5.2562308311462402e-01 -5.6495201587677002e-01</leafValues></_></weakClassifiers></_>
    <!-- stage 4 -->
    <_>
      <maxWeakCount>2</maxWeakCount>
      <stageThreshold>1.7995874881744385e+00</stageThreshold>
      <weakClassifiers>
        <_>
          <internalNodes>
            0 -1 0 6.1717452481389046e-03</internalNodes>
          <leafValues>
            9.4602411985397339e-01 -1.</leafValues></_>
        <_>
          <internalNodes>
            0 -1 75 -7.1298897266387939e-02</internalNodes>
          <leafValues>
            -9.6300649642944336e-01 8.5356336832046509e-01</leafValues></_></weakClassifiers></_>
    <!-- stage 5 -->
    <_>
      <maxWeakCount>5</maxWeakCount>
      <stageThreshold>8.3611893653869629e-01</stageThreshold>
      <weakClassifiers>
        <_>
          <internalNodes>
            0 -1 18 5.2069485187530518e-02</internalNodes>
          <leafValues>
            9.3113344907760620e-01 -1.</leafValues></_>
        <_>
          <internalNodes>
            0 -1 43 -4.6098851598799229e-03</internalNodes>
          <leafValues>
            -8.5182887315750122e-01 7.7711158990859985e-01</leafValues></_>
        <_>
          <internalNodes>
            0 -1 3 1.5260120853781700e-02</internalNodes>
          <leafValues>
            -5.0710856914520264e-01 7.9816389083862305e-01</leafValues></_>
        <_>
          <internalNodes>
            0 -1 66 -3.1563586089760065e-03</internalNodes>
          <leafValues>
            8.3902019262313843e-01 -2.5807383656501770e-01</leafValues></_>
        <_>
          <internalNodes>
            0 -1 73 -3.6071171052753925e-04</internalNodes>
          <leafValues>
            -7.5598084926605225e-01 4.2490276694297791e-01</leafValues></_></weakClassifiers></_>
    <!-- stage 6 -->
    <_>
      <maxWeakCount>5</maxWeakCount>
      <stageThreshold>6.7502415180206299e-01</stageThreshold>
      <weakClassifiers>
        <_>
          <internalNodes>
            0 -1 61 7.3930653743445873e-03</internalNodes>
          <leafValues>
            9.4644594192504883e-01 -3.8461539149284363e-01</leafValues></_>
        <_>
          <internalNodes>
            0 -1 33 3.2247924245893955e-03</internalNodes>
          <leafValues>
            1.9523637602105737e-03 9.2569607496261597e-01</leafValues></_>
        <_>
          <internalNodes>
            0 -1 41 3.0794118065387011e-03</internalNodes>
          <leafValues>
            -1.5293325483798981e-01 9.2282265424728394e-01</leafValues></_>
        <_>
          <internalNodes>
            0 -1 58 -1.2810369953513145e-02</internalNodes>
          <leafValues>
            5.8865755796432495e-01 -5.1806765794754028e-01</leafValues></_>
        <_>
          <internalNodes>
            0 -1 17 1.8200214952230453e-02</internalNodes>
          <leafValues>
            4.2897704243659973e-01 -7.0909851789474487e-01</leafValues></_></weakClassifiers></_>
    <!-- stage 7 -->
    <_>
      <maxWeakCount>4</maxWeakCount>
      <stageThreshold>8.7863683700561523e-01</stageThreshold>
      <weakClassifiers>
        <_>
          <internalNodes>
            0 -1 28 -1.6357321292161942e-02</internalNodes>
          <leafValues>
            -1. 9.3483471870422363e-01</leafValues></_>
        <_>
          <internalNodes>
            0 -1 56 -8.6213287431746721e-04</internalNodes>
          <leafValues>
            8.1751292943954468e-01 -5.0530385971069336e-01</leafValues></_>
        <_>
          <internalNodes>
            0 -1 34 1.0366495698690414e-02</internalNodes>
          <leafValues>
            -3.3427801728248596e-01 8.4537941217422485e-01</leafValues></_>
        <_>
          <internalNodes>
            0 -1 39 1.3298226986080408e-04</internalNodes>
          <leafValues>
            -3.1968566775321960e-01 7.8338408470153809e-01</leafValues></_></weakClassifiers></_>
    <!-- stage 8 -->
    <_>
      <maxWeakCount>4</maxWeakCount>
      <stageThreshold>6.6008490324020386e-01</stageThreshold>
      <weakClassifiers>
        <_>
          <internalNodes>
            0 -1 11 3.0422620475292206e-02</internalNodes>
          <leafValues>
            9.4227993488311768e-01 -1.</leafValues></_>
        <_>
          <internalNodes>
            0 -1 49 -1.7141968011856079e-02</internalNodes>
          <leafValues>
            -6.9892948865890503e-01 8.1892883777618408e-01</leafValues></_>
        <_>
          <internalNodes>
            0 -1 52 -2.2917075548321009e-03</internalNodes>
          <leafValues>
            7.3816448450088501e-01 -4.3487367033958435e-01</leafValues></_>
        <_>
          <internalNodes>
            0 -1 74 1.1346356477588415e-03</internalNodes>
          <leafValues>
            -2.8294962644577026e-01 8.5160809755325317e-01</leafValues></_></weakClassifiers></_>
    <!-- stage 9 -->
    <_>
      <maxWeakCount>3</maxWeakCount>
      <stageThreshold>1.1237033605575562e+00</stageThreshold>
      <weakClassifiers>
        <_>
          <internalNodes>
            0 -1 16 -4.6191490255296230e-03</internalNodes>
          <leafValues>
            -1. 9.4041323661804199e-01</leafValues></_>
        <_>
          <internalNodes>
            0 -1 71 1.7106987535953522e-02</internalNodes>
          <leafValues>
            7.9202187061309814e-01 -6.2401008605957031e-01</leafValues></_>
        <_>
          <internalNodes>
            0 -1 42 1.1696566361933947e-03</internalNodes>
          <leafValues>
            -4.7157505154609680e-01 8.0730015039443970e-01</leafValues></_></weakClassifiers></_>
    <!-- stage 10 -->
    <_>
      <maxWeakCount>5</maxWeakCount>
      <stageThreshold>6.7980509996414185e-01</stageThreshold>
      <weakClassifiers>
        <_>
          <internalNodes>
            0 -1 15 -2.5434862822294235e-02</internalNodes>
          <leafValues>
            -1. 9.3298226594924927e-01</leafValues></_>
        <_>
          <internalNodes>
            0 -1 51 2.2906661033630371e-03</internalNodes>
          <leafValues>
            7.6956701278686523e-01 -7.0157766342163086e-01</leafValues></_>
        <_>
          <internalNodes>
            0 -1 68 -4.6142358332872391e-03</internalNodes>
          <leafValues>
            7.1588075160980225e-01 -3.9421293139457703e-01</leafValues></_>
        <_>
          <internalNodes>
            0 -1 10 -1.8146736547350883e-03</internalNodes>
          <leafValues>
            3.3969190716743469e-01 -8.5578429698944092e-01</leafValues></_>
        <_>
          <internalNodes>
            0 -1 32 9.2825631145387888e-04</internalNodes>
          <leafValues>
            -5.1026171445846558e-01 5.0292152166366577e-01</leafValues></_></weakClassifiers></_>
    <!-- stage 11 -->
    <_>
      <maxWeakCount>3</maxWeakCount>
      <stageThreshold>9.7234243154525757e-01</stageThreshold>
      <weakClassifiers>
        <_>
          <internalNodes>
            0 -1 25 2.8815421462059021e-01</internalNodes>
          <leafValues>
            9.3205744028091431e-01 -1.</leafValues></_>
        <_>
          <internalNodes>
            0 -1 80 -1.3343869708478451e-02</internalNodes>
          <leafValues>
            -6.3474762439727783e-01 7.8388845920562744e-01</leafValues></_>
        <_>
          <internalNodes>
            0 -1 59 2.1866806782782078e-03</internalNodes>
          <leafValues>
            -5.1264071464538574e-01 6.7503261566162109e-01</leafValues></_></weakClassifiers></_>
    <!-- stage 12 -->
    <_>
      <maxWeakCount>2</maxWeakCount>
      <stageThreshold>1.6986777782440186e+00</stageThreshold>
      <weakClassifiers>
        <_>
          <internalNodes>
            0 -1 79 2.5634555146098137e-02</internalNodes>
          <leafValues>
            9.3761998414993286e-01 -1.</leafValues></_>
        <_>
          <internalNodes>
            0 -1 81 3.7410855293273926e-02</internalNodes>
          <leafValues>
            7.6105773448944092e-01 -1.</leafValues></_></weakClassifiers></_>
    <!-- stage 13 -->
    <_>
      <maxWeakCount>8</maxWeakCount>
      <stageThreshold>4.1498619318008423e-01</stageThreshold>
      <weakClassifiers>
        <_>
          <internalNodes>
            0 -1 54 6.8748123943805695e-02</internalNodes>
          <leafValues>
            9.3113344907760620e-01 -1.</leafValues></_>
        <_>
          <internalNodes>
            0 -1 12 -2.7741342782974243e-02</internalNodes>
          <leafValues>
            -5.0126194953918457e-01 7.8674989938735962e-01</leafValues></_>
        <_>
          <internalNodes>
            0 -1 76 -1.4681739266961813e-03</internalNodes>
          <leafValues>
            7.3402684926986694e-01 -3.5135152935981750e-01</leafValues></_>
        <_>
          <internalNodes>
            0 -1 72 8.5965741891413927e-04</internalNodes>
          <leafValues>
            -2.6431119441986084e-01 8.5942971706390381e-01</leafValues></_>
        <_>
          <internalNodes>
            0 -1 30 -6.1850616475567222e-05</internalNodes>
          <leafValues>
            4.2294734716415405e-01 -5.9933453798294067e-01</leafValues></_>
        <_>
          <internalNodes>
            0 -1 19 3.3629225799813867e-04</internalNodes>
          <leafValues>
            -3.5993412137031555e-01 8.6812657117843628e-01</leafValues></_>
        <_>
          <internalNodes>
            0 -1 47 1.1197933927178383e-03</internalNodes>
          <leafValues>
            -3.2937198877334595e-01 6.6312009096145630e-01</leafValues></_>
        <_>
          <internalNodes>
            0 -1 53 1.4351223362609744e-03</internalNodes>
          <leafValues>
            -2.5660470128059387e-01 8.6819338798522949e-01</leafValues></_></weakClassifiers></_>
    <!-- stage 14 -->
    <_>
      <maxWeakCount>4</maxWeakCount>
      <stageThreshold>1.0413426160812378e+00</stageThreshold>
      <weakClassifiers>
        <_>
          <internalNodes>
            0 -1 2 9.5552876591682434e-03</internalNodes>
          <leafValues>
            9.2744630575180054e-01 -1.</leafValues></_>
        <_>
          <internalNodes>
            0 -1 13 -2.1255950559861958e-04</internalNodes>
          <leafValues>
            8.1524628400802612e-01 -2.0542168617248535e-01</leafValues></_>
        <_>
          <internalNodes>
            0 -1 57 -1.5961131453514099e-01</internalNodes>
          <leafValues>
            9.7808933258056641e-01 -1.5520745515823364e-01</leafValues></_>
        <_>
          <internalNodes>
            0 -1 37 -2.9299068264663219e-03</internalNodes>
          <leafValues>
            -6.5877127647399902e-01 4.8835483193397522e-01</leafValues></_></weakClassifiers></_>
    <!-- stage 15 -->
    <_>
      <maxWeakCount>5</maxWeakCount>
      <stageThreshold>1.0285531282424927e+00</stageThreshold>
      <weakClassifiers>
        <_>
          <internalNodes>
            0 -1 23 2.0989714562892914e-01</internalNodes>
          <leafValues>
            9.3576222658157349e-01 -1.</leafValues></_>
        <_>
          <internalNodes>
            0 -1 8 3.9794235490262508e-03</internalNodes>
          <leafValues>
            7.8857487440109253e-01 -6.6866028308868408e-01</leafValues></_>
        <_>
          <internalNodes>
            0 -1 45 -2.4133568629622459e-02</internalNodes>
          <leafValues>
            9.1180688142776489e-01 -3.6121019721031189e-01</leafValues></_>
        <_>
          <internalNodes>
            0 -1 22 -1.5258201397955418e-02</internalNodes>
          <leafValues>
            5.1173859834671021e-01 -4.7419041395187378e-01</leafValues></_>
        <_>
          <internalNodes>
            0 -1 67 1.6369909048080444e-02</internalNodes>
          <leafValues>
            -4.5103135704994202e-01 6.1092287302017212e-01</leafValues></_></weakClassifiers></_>
    <!-- stage 16 -->
    <_>
      <maxWeakCount>6</maxWeakCount>
      <stageThreshold>5.8844137191772461e-01</stageThreshold>
      <weakClassifiers>
        <_>
          <internalNodes>
            0 -1 27 -3.0621573328971863e-02</internalNodes>
          <leafValues>
            -1. 9.3855017423629761e-01</leafValues></_>
        <_>
          <internalNodes>
            0 -1 14 -5.5780177935957909e-03</internalNodes>
          <leafValues>
            9.3408936262130737e-01 1.3992436230182648e-01</leafValues></_>
        <_>
          <internalNodes>
            0 -1 60 1.4984125737100840e-03</internalNodes>
          <leafValues>
            -4.4935306906700134e-01 6.9859141111373901e-01</leafValues></_>
        <_>
          <internalNodes>
            0 -1 69 -5.8232800802215934e-04</internalNodes>
          <leafValues>
            9.2371517419815063e-01 -2.7444604039192200e-01</leafValues></_>
        <_>
          <internalNodes>
            0 -1 50 -2.8907465748488903e-03</internalNodes>
          <leafValues>
            9.0359103679656982e-01 -3.1759786605834961e-01</leafValues></_>
        <_>
          <internalNodes>
            0 -1 48 4.1420157067477703e-03</internalNodes>
          <leafValues>
            -2.4280117452144623e-01 9.0961700677871704e-01</leafValues></_></weakClassifiers></_>
    <!-- stage 17 -->
    <_>
      <maxWeakCount>5</maxWeakCount>
      <stageThreshold>1.9710764288902283e-01</stageThreshold>
      <weakClassifiers>
        <_>
          <internalNodes>
            0 -1 40 6.4141638576984406e-02</internalNodes>
          <leafValues>
            9.3390804529190063e-01 -1.</leafValues></_>
        <_>
          <internalNodes>
            0 -1 70 -4.2671943083405495e-03</internalNodes>
          <leafValues>
            7.5065261125564575e-01 -7.8988522291183472e-01</leafValues></_>
        <_>
          <internalNodes>
            0 -1 20 -1.7906670691445470e-03</internalNodes>
          <leafValues>
            6.3194698095321655e-01 -4.7396793961524963e-01</leafValues></_>
        <_>
          <internalNodes>
            0 -1 44 -2.7333384379744530e-02</internalNodes>
          <leafValues>
            4.8644790053367615e-01 -5.9858238697052002e-01</leafValues></_>
        <_>
          <internalNodes>
            0 -1 55 -2.4165133945643902e-03</internalNodes>
          <leafValues>
            8.1626754999160767e-01 -4.1490268707275391e-01</leafValues></_></weakClassifiers></_>
    <!-- stage 18 -->
    <_>
      <maxWeakCount>5</maxWeakCount>
      <stageThreshold>6.3607305288314819e-01</stageThreshold>
      <weakClassifiers>
        <_>
          <internalNodes>
            0 -1 6 -7.9215943813323975e-01</internalNodes>
          <leafValues>
            -1. 9.3113344907760620e-01</leafValues></_>
        <_>
          <internalNodes>
            0 -1 38 1.5417585382238030e-03</internalNodes>
          <leafValues>
            8.0835014581680298e-01 -5.4891639947891235e-01</leafValues></_>
        <_>
          <internalNodes>
            0 -1 82 2.6231608353555202e-03</internalNodes>
          <leafValues>
            -1.7694669961929321e-01 9.2266255617141724e-01</leafValues></_>
        <_>
          <internalNodes>
            0 -1 63 2.4517290294170380e-03</internalNodes>
          <leafValues>
            -2.3029243946075439e-01 8.5832029581069946e-01</leafValues></_>
        <_>
          <internalNodes>
            0 -1 46 9.8139243200421333e-03</internalNodes>
          <leafValues>
            -3.8799518346786499e-01 6.6109520196914673e-01</leafValues></_></weakClassifiers></_>
    <!-- stage 19 -->
    <_>
      <maxWeakCount>6</maxWeakCount>
      <stageThreshold>9.2365765571594238e-01</stageThreshold>
      <weakClassifiers>
        <_>
          <internalNodes>
            0 -1 78 -5.1500454545021057e-02</internalNodes>
          <leafValues>
            -1. 9.2928808927536011e-01</leafValues></_>
        <_>
          <internalNodes>
            0 -1 36 1.5028587076812983e-03</internalNodes>
          <leafValues>
            7.7966332435607910e-01 -3.9883318543434143e-01</leafValues></_>
        <_>
          <internalNodes>
            0 -1 35 4.7924262471497059e-03</internalNodes>
          <leafValues>
            -6.3287299871444702e-01 5.3518438339233398e-01</leafValues></_>
        <_>
          <internalNodes>
            0 -1 9 -5.8991974219679832e-03</internalNodes>
          <leafValues>
            6.3623470067977905e-01 -4.9891775846481323e-01</leafValues></_>
        <_>
          <internalNodes>
            0 -1 65 -7.5277471914887428e-03</internalNodes>
          <leafValues>
            8.8948029279708862e-01 -2.8621047735214233e-01</leafValues></_>
        <_>
          <internalNodes>
            0 -1 21 5.1390505395829678e-03</internalNodes>
          <leafValues>
            -3.9079338312149048e-01 6.4314663410186768e-01</leafValues></_></weakClassifiers></_></stages>
  <features>
    <_>
      <rects>
        <_>
          0 0 8 12 -1.</_>
        <_>
          0 6 8 6 2.</_></rects>
      <tilted>0</tilted></_>
    <_>
      <rects>
        <_>
          0 0 22 18 -1.</_>
        <_>
          0 0 11 9 2.</_>
        <_>
          11 9 11 9 2.</_></rects>
      <tilted>0</tilted></_>
    <_>
      <rects>
        <_>
          0 0 24 2 -1.</_>
        <_>
          0 1 24 1 2.</_></rects>
      <tilted>0</tilted></_>
    <_>
      <rects>
        <_>
          0 3 12 7 -1.</_>
        <_>
          4 3 4 7 3.</_></rects>
      <tilted>0</tilted></_>
    <_>
      <rects>
        <_>
          0 3 12 8 -1.</_>
        <_>
          4 3 4 8 3.</_></rects>
      <tilted>0</tilted></_>
    <_>
      <rects>
        <_>
          0 5 18 1 -1.</_>
        <_>
          6 5 6 1 3.</_></rects>
      <tilted>0</tilted></_>
    <_>
      <rects>
        <_>
          0 5 24 18 -1.</_>
        <_>
          12 5 12 18 2.</_></rects>
      <tilted>0</tilted></_>
    <_>
      <rects>
        <_>
          0 5 14 18 -1.</_>
        <_>
          0 11 14 6 3.</_></rects>
      <tilted>0</tilted></_>
    <_>
      <rects>
        <_>
          0 6 3 12 -1.</_>
        <_>
          0 10 3 4 3.</_></rects>
      <tilted>0</tilted></_>
    <_>
      <rects>
        <_>
          0 7 6 11 -1.</_>
        <_>
          2 7 2 11 3.</_></rects>
      <tilted>0</tilted></_>
    <_>
      <rects>
        <_>
          0 7 16 4 -1.</_>
        <_>
          0 9 16 2 2.</_></rects>
      <tilted>0</tilted></_>
    <_>
      <rects>
        <_>
          0 11 22 12 -1.</_>
        <_>
          0 15 22 4 3.</_></rects>
      <tilted>0</tilted></_>
    <_>
      <rects>
        <_>
          0 11 24 4 -1.</_>
        <_>
          0 13 24 2 2.</_></rects>
      <tilted>0</tilted></_>
    <_>
      <rects>
        <_>
          0 13 4 9 -1.</_>
        <_>
          0 16 4 3 3.</_></rects>
      <tilted>0</tilted></_>
    <_>
      <rects>
        <_>
          0 13 8 10 -1.</_>
        <_>
          0 13 4 5 2.</_>
        <_>
          4 18 4 5 2.</_></rects>
      <tilted>0</tilted></_>
    <_>
      <rects>
        <_>
          0 13 10 6 -1.</_>
        <_>
          5 13 5 6 2.</_></rects>
      <tilted>0</tilted></_>
    <_>
      <rects>
        <_>
          0 13 13 10 -1.</_>
        <_>
          0 18 13 5 2.</_></rects>
      <tilted>0</tilted></_>
    <_>
      <rects>
        <_>
          0 13 19 6 -1.</_>
        <_>
          0 16 19 3 2.</_></rects>
      <tilted>0</tilted></_>
    <_>
      <rects>
        <_>
          0 14 10 10 -1.</_>
        <_>
          5 14 5 10 2.</_></rects>
      <tilted>0</tilted></_>
    <_>
      <rects>
        <_>
          0 15 2 2 -1.</_>
        <_>
          0 15 1 1 2.</_>
        <_>
          1 16 1 1 2.</_></rects>
      <tilted>0</tilted></_>
    <_>
      <rects>
        <_>
          0 17 10 6 -1.</_>
        <_>
          0 17 5 3 2.</_>
        <_>
          5 20 5 3 2.</_></rects>
      <tilted>0</tilted></_>
    <_>
      <rects>
        <_>
          1 0 22 1 -1.</_>
        <_>
          12 0 11 1 2.</_></rects>
      <tilted>0</tilted></_>
    <_>
      <rects>
        <_>
          1 0 18 8 -1.</_>
        <_>
          1 4 18 4 2.</_></rects>
      <tilted>0</tilted></_>
    <_>
      <rects>
        <_>
          1 0 20 12 -1.</_>
        <_>
          1 4 20 4 3.</_></rects>
      <tilted>0</tilted></_>
    <_>
      <rects>
        <_>
          1 2 2 10 -1.</_>
        <_>
          1 7 2 5 2.</_></rects>
      <tilted>0</tilted></_>
    <_>
      <rects>
        <_>
          1 2 18 16 -1.</_>
        <_>
          7 2 6 16 3.</_></rects>
      <tilted>0</tilted></_>
    <_>
      <rects>
        <_>
          1 2 13 22 -1.</_>
        <_>
          1 13 13 11 2.</_></rects>
      <tilted>0</tilted></_>
    <_>
      <rects>
        <_>
          1 2 20 4 -1.</_>
        <_>
          1 4 20 2 2.</_></rects>
      <tilted>0</tilted></_>
    <_>
      <rects>
        <_>
          1 4 18 2 -1.</_>
        <_>
          7 4 6 2 3.</_></rects>
      <tilted>0</tilted></_>
    <_>
      <rects>
        <_>
          1 6 6 6 -1.</_>
        <_>
          4 6 3 6 2.</_></rects>
      <tilted>0</tilted></_>
    <_>
      <rects>
        <_>
          1 7 1 6 -1.</_>
        <_>
          1 10 1 3 2.</_></rects>
      <tilted>0</tilted></_>
    <_>
      <rects>
        <_>
          1 10 11 14 -1.</_>
        <_>
          1 17 11 7 2.</_></rects>
      <tilted>0</tilted></_>
    <_>
      <rects>
        <_>
          1 11 6 1 -1.</_>
        <_>
          4 11 3 1 2.</_></rects>
      <tilted>0</tilted></_>
    <_>
      <rects>
        <_>
          1 15 15 1 -1.</_>
        <_>
          6 15 5 1 3.</_></rects>
      <tilted>0</tilted></_>
    <_>
      <rects>
        <_>
          1 15 15 2 -1.</_>
        <_>
          6 15 5 2 3.</_></rects>
      <tilted>0</tilted></_>
    <_>
      <rects>
        <_>
          1 16 23 8 -1.</_>
        <_>
          1 20 23 4 2.</_></rects>
      <tilted>0</tilted></_>
    <_>
      <rects>
        <_>
          1 21 14 1 -1.</_>
        <_>
          8 21 7 1 2.</_></rects>
      <tilted>0</tilted></_>
    <_>
      <rects>
        <_>
          1 22 12 2 -1.</_>
        <_>
          7 22 6 2 2.</_></rects>
      <tilted>0</tilted></_>
    <_>
      <rects>
        <_>
          2 22 14 1 -1.</_>
        <_>
          9 22 7 1 2.</_></rects>
      <tilted>0</tilted></_>
    <_>
      <rects>
        <_>
          3 3 2 1 -1.</_>
        <_>
          4 3 1 1 2.</_></rects>
      <tilted>0</tilted></_>
    <_>
      <rects>
        <_>
          3 7 15 16 -1.</_>
        <_>
          3 15 15 8 2.</_></rects>
      <tilted>0</tilted></_>
    <_>
      <rects>
        <_>
          3 12 4 5 -1.</_>
        <_>
          5 12 2 5 2.</_></rects>
      <tilted>0</tilted></_>
    <_>
      <rects>
        <_>
          3 14 4 3 -1.</_>
        <_>
          5 14 2 3 2.</_></rects>
      <tilted>0</tilted></_>
    <_>
      <rects>
        <_>
          3 20 12 2 -1.</_>
        <_>
          7 20 4 2 3.</_></rects>
      <tilted>0</tilted></_>
    <_>
      <rects>
        <_>
          4 0 15 10 -1.</_>
        <_>
          4 5 15 5 2.</_></rects>
      <tilted>0</tilted></_>
    <_>
      <rects>
        <_>
          4 2 8 8 -1.</_>
        <_>
          8 2 4 8 2.</_></rects>
      <tilted>0</tilted></_>
    <_>
      <rects>
        <_>
          4 10 8 8 -1.</_>
        <_>
          4 10 4 4 2.</_>
        <_>
          8 14 4 4 2.</_></rects>
      <tilted>0</tilted></_>
    <_>
      <rects>
        <_>
          4 11 2 6 -1.</_>
        <_>
          5 11 1 6 2.</_></rects>
      <tilted>0</tilted></_>
    <_>
      <rects>
        <_>
          4 11 3 8 -1.</_>
        <_>
          5 11 1 8 3.</_></rects>
      <tilted>0</tilted></_>
    <_>
      <rects>
        <_>
          4 11 12 6 -1.</_>
        <_>
          4 14 12 3 2.</_></rects>
      <tilted>0</tilted></_>
    <_>
      <rects>
        <_>
          4 14 4 8 -1.</_>
        <_>
          4 14 2 4 2.</_>
        <_>
          6 18 2 4 2.</_></rects>
      <tilted>0</tilted></_>
    <_>
      <rects>
        <_>
          4 22 10 2 -1.</_>
        <_>
          4 23 10 1 2.</_></rects>
      <tilted>0</tilted></_>
    <_>
      <rects>
        <_>
          5 7 6 4 -1.</_>
        <_>
          8 7 3 4 2.</_></rects>
      <tilted>0</tilted></_>
    <_>
      <rects>
        <_>
          5 15 4 1 -1.</_>
        <_>
          7 15 2 1 2.</_></rects>
      <tilted>0</tilted></_>
    <_>
      <rects>
        <_>
          6 1 18 14 -1.</_>
        <_>
          6 1 9 7 2.</_>
        <_>
          15 8 9 7 2.</_></rects>
      <tilted>0</tilted></_>
    <_>
      <rects>
        <_>
          6 8 2 7 -1.</_>
        <_>
          7 8 1 7 2.</_></rects>
      <tilted>0</tilted></_>
    <_>
      <rects>
        <_>
          6 17 18 7 -1.</_>
        <_>
          15 17 9 7 2.</_></rects>
      <tilted>0</tilted></_>
    <_>
      <rects>
        <_>
          7 5 12 11 -1.</_>
        <_>
          13 5 6 11 2.</_></rects>
      <tilted>0</tilted></_>
    <_>
      <rects>
        <_>
          7 8 8 9 -1.</_>
        <_>
          7 11 8 3 3.</_></rects>
      <tilted>0</tilted></_>
    <_>
      <rects>
        <_>
          8 13 8 4 -1.</_>
        <_>
          8 15 8 2 2.</_></rects>
      <tilted>0</tilted></_>
    <_>
      <rects>
        <_>
          8 13 11 4 -1.</_>
        <_>
          8 15 11 2 2.</_></rects>
      <tilted>0</tilted></_>
    <_>
      <rects>
        <_>
          8 18 16 5 -1.</_>
        <_>
          16 18 8 5 2.</_></rects>
      <tilted>0</tilted></_>
    <_>
      <rects>
        <_>
          9 0 10 4 -1.</_>
        <_>
          9 2 10 2 2.</_></rects>
      <tilted>0</tilted></_>
    <_>
      <rects>
        <_>
          9 9 6 1 -1.</_>
        <_>
          11 9 2 1 3.</_></rects>
      <tilted>0</tilted></_>
    <_>
      <rects>
        <_>
          9 19 14 5 -1.</_>
        <_>
          16 19 7 5 2.</_></rects>
      <tilted>0</tilted></_>
    <_>
      <rects>
        <_>
          10 0 3 18 -1.</_>
        <_>
          11 0 1 18 3.</_></rects>
      <tilted>0</tilted></_>
    <_>
      <rects>
        <_>
          10 11 3 8 -1.</_>
        <_>
          11 11 1 8 3.</_></rects>
      <tilted>0</tilted></_>
    <_>
      <rects>
        <_>
          11 0 2 15 -1.</_>
        <_>
          11 5 2 5 3.</_></rects>
      <tilted>0</tilted></_>
    <_>
      <rects>
        <_>
          11 11 9 3 -1.</_>
        <_>
          14 11 3 3 3.</_></rects>
      <tilted>0</tilted></_>
    <_>
      <rects>
        <_>
          11 12 2 4 -1.</_>
        <_>
          11 12 1 2 2.</_>
        <_>
          12 14 1 2 2.</_></rects>
      <tilted>0</tilted></_>
    <_>
      <rects>
        <_>
          12 0 3 14 -1.</_>
        <_>
          12 7 3 7 2.</_></rects>
      <tilted>0</tilted></_>
    <_>
      <rects>
        <_>
          12 0 12 8 -1.</_>
        <_>
          12 4 12 4 2.</_></rects>
      <tilted>0</tilted></_>
    <_>
      <rects>
        <_>
          12 14 3 1 -1.</_>
        <_>
          13 14 1 1 3.</_></rects>
      <tilted>0</tilted></_>
    <_>
      <rects>
        <_>
          12 14 9 6 -1.</_>
        <_>
          12 17 9 3 2.</_></rects>
      <tilted>0</tilted></_>
    <_>
      <rects>
        <_>
          13 13 2 10 -1.</_>
        <_>
          13 13 1 5 2.</_>
        <_>
          14 18 1 5 2.</_></rects>
      <tilted>0</tilted></_>
    <_>
      <rects>
        <_>
          14 0 9 10 -1.</_>
        <_>
          14 5 9 5 2.</_></rects>
      <tilted>0</tilted></_>
    <_>
      <rects>
        <_>
          14 3 6 3 -1.</_>
        <_>
          16 3 2 3 3.</_></rects>
      <tilted>0</tilted></_>
    <_>
      <rects>
        <_>
          14 8 5 9 -1.</_>
        <_>
          14 11 5 3 3.</_></rects>
      <tilted>0</tilted></_>
    <_>
      <rects>
        <_>
          14 9 10 8 -1.</_>
        <_>
          19 9 5 8 2.</_></rects>
      <tilted>0</tilted></_>
    <_>
      <rects>
        <_>
          15 18 8 6 -1.</_>
        <_>
          15 21 8 3 2.</_></rects>
      <tilted>0</tilted></_>
    <_>
      <rects>
        <_>
          17 0 6 9 -1.</_>
        <_>
          20 0 3 9 2.</_></rects>
      <tilted>0</tilted></_>
    <_>
      <rects>
        <_>
          17 0 6 13 -1.</_>
        <_>
          20 0 3 13 2.</_></rects>
      <tilted>0</tilted></_>
    <_>
      <rects>
        <_>
          18 11 3 9 -1.</_>
        <_>
          19 11 1 9 3.</_></rects>
      <tilted>0</tilted></_>
    <_>
      <rects>
        <_>
          18 13 5 10 -1.</_>
        <_>
          18 18 5 5 2.</_></rects>
      <tilted>0</tilted></_>
    <_>
      <rects>
        <_>
          21 6 3 6 -1.</_>
        <_>
          21 8 3 2 3.</_></rects>
      <tilted>0</tilted></_></features></cascade>
</opencv_storage>
