<?xml version="1.0"?>
<opencv_storage>
<cascade>
  <stageType>BOOST</stageType>
  <featureType>HAAR</featureType>
  <height>24</height>
  <width>24</width>
  <stageParams>
    <boostType>GAB</boostType>
    <minHitRate>9.9500000476837158e-01</minHitRate>
    <maxFalseAlarm>5.0000000000000000e-01</maxFalseAlarm>
    <weightTrimRate>9.4999998807907104e-01</weightTrimRate>
    <maxDepth>1</maxDepth>
    <maxWeakCount>100</maxWeakCount></stageParams>
  <featureParams>
    <maxCatCount>0</maxCatCount>
    <featSize>1</featSize>
    <mode>BASIC</mode></featureParams>
  <stageNum>16</stageNum>
  <stages>
    <!-- stage 0 -->
    <_>
      <maxWeakCount>4</maxWeakCount>
      <stageThreshold>-2.1586580276489258e+00</stageThreshold>
      <weakClassifiers>
        <_>
          <internalNodes>
            0 -1 56 -9.1347895562648773e-02</internalNodes>
          <leafValues>
            5.5555558204650879e-01 -9.5494616031646729e-01</leafValues></_>
        <_>
          <internalNodes>
            0 -1 31 1.6070796549320221e-01</internalNodes>
          <leafValues>
            -8.4964579343795776e-01 2.9297754168510437e-01</leafValues></_>
        <_>
          <internalNodes>
            0 -1 35 -1.4237724244594574e-02</internalNodes>
          <leafValues>
            3.8346448540687561e-01 -7.5943881273269653e-01</leafValues></_>
        <_>
          <internalNodes>
            0 -1 18 -4.5167285948991776e-02</internalNodes>
          <leafValues>
            4.7186091542243958e-01 -7.3725062608718872e-01</leafValues></_></weakClassifiers></_>
    <!-- stage 1 -->
    <_>
      <maxWeakCount>3</maxWeakCount>
      <stageThreshold>-1.7900952100753784e+00</stageThreshold>
      <weakClassifiers>
        <_>
          <internalNodes>
            0 -1 52 -7.8777253627777100e-02</internalNodes>
          <leafValues>
            1. -9.5121949911117554e-01</leafValues></_>
        <_>
          <internalNodes>
            0 -1 9 6.1542801558971405e-02</internalNodes>
          <leafValues>
            -8.8489317893981934e-01 -3.4171029925346375e-02</leafValues></_>
        <_>
          <internalNodes>
            0 -1 62 -6.9292364642024040e-03</internalNodes>
          <leafValues>
            3.0487573146820068e-01 -8.0470466613769531e-01</leafValues></_></weakClassifiers></_>
    <!-- stage 2 -->
    <_>
      <maxWeakCount>3</maxWeakCount>
      <stageThreshold>-2.0923993587493896e+00</stageThreshold>
      <weakClassifiers>
        <_>
          <internalNodes>
            0 -1 51 -2.0273521542549133e-01</internalNodes>
          <leafValues>
            5.0000000000000000e-01 -9.5303326845169067e-01</leafValues></_>
        <_>
          <internalNodes>
            0 -1 5 -3.3106356859207153e-02</internalNodes>
          <leafValues>
            -3.2003596425056458e-01 -9.4502782821655273e-01</leafValues></_>
        <_>
          <internalNodes>
            0 -1 19 -8.5568636655807495e-02</internalNodes>
          <leafValues>
            1.5459804236888885e-01 -8.1933009624481201e-01</leafValues></_></weakClassifiers></_>
    <!-- stage 3 -->
    <_>
      <maxWeakCount>5</maxWeakCount>
      <stageThreshold>-2.1424853801727295e+00</stageThreshold>
      <weakClassifiers>
        <_>
          <internalNodes>
            0 -1 3 2.7122163772583008e-01</internalNodes>
          <leafValues>
            -9.4741964340209961e-01 1.</leafValues></_>
        <_>
          <internalNodes>
            0 -1 33 -3.0763296410441399e-02</internalNodes>
          <leafValues>
            5.1494345068931580e-02 -8.6207616329193115e-01</leafValues></_>
        <_>
          <internalNodes>
            0 -1 22 -4.6792929060757160e-03</internalNodes>
          <leafValues>
            9.0340390801429749e-02 -9.1074949502944946e-01</leafValues></_>
        <_>
          <internalNodes>
            0 -1 23 -3.9034723304212093e-03</internalNodes>
          <leafValues>
            3.5907244682312012e-01 -7.1467053890228271e-01</leafValues></_>
        <_>
          <internalNodes>
            0 -1 26 7.4109563138335943e-04</internalNodes>
          <leafValues>
            -7.3085433244705200e-01 2.9134050011634827e-01</leafValues></_></weakClassifiers></_>
    <!-- stage 4 -->
    <_>
      <maxWeakCount>4</maxWeakCount>
      <stageThreshold>-1.8169871568679810e+00</stageThreshold>
      <weakClassifiers>
        <_>
          <internalNodes>
            0 -1 11 -6.9827057421207428e-02</internalNodes>
          <leafValues>
            6.0000002384185791e-01 -9.4926828145980835e-01</leafValues></_>
        <_>
          <internalNodes>
            0 -1 54 -1.6185793280601501e-01</internalNodes>
          <leafValues>
            2.7224686741828918e-01 -7.9350429773330688e-01</leafValues></_>
        <_>
          <internalNodes>
            0 -1 55 -2.8670998290181160e-03</internalNodes>
          <leafValues>
            3.8535669445991516e-01 -6.2957453727722168e-01</leafValues></_>
        <_>
          <internalNodes>
            0 -1 34 -3.2234601676464081e-02</internalNodes>
          <leafValues>
            6.3516944646835327e-01 -4.5957121253013611e-01</leafValues></_></weakClassifiers></_>
    <!-- stage 5 -->
    <_>
      <maxWeakCount>5</maxWeakCount>
      <stageThreshold>-1.9795483350753784e+00</stageThreshold>
      <weakClassifiers>
        <_>
          <internalNodes>
            0 -1 6 4.7790446877479553e-01</internalNodes>
          <leafValues>
            -9.4736844301223755e-01 5.0000000000000000e-01</leafValues></_>
        <_>
          <internalNodes>
            0 -1 50 -3.9808668196201324e-02</internalNodes>
          <leafValues>
            5.9923684597015381e-01 -7.4620622396469116e-01</leafValues></_>
        <_>
          <internalNodes>
            0 -1 16 7.6209462713450193e-04</internalNodes>
          <leafValues>
            -7.2071468830108643e-01 2.4895337224006653e-01</leafValues></_>
        <_>
          <internalNodes>
            0 -1 46 -5.3677009418606758e-04</internalNodes>
          <leafValues>
            3.5801482200622559e-01 -6.1530590057373047e-01</leafValues></_>
        <_>
          <internalNodes>
            0 -1 42 1.5232560690492392e-04</internalNodes>
          <leafValues>
            2.3756758868694305e-01 -8.9294195175170898e-01</leafValues></_></weakClassifiers></_>
    <!-- stage 6 -->
    <_>
      <maxWeakCount>4</maxWeakCount>
      <stageThreshold>-2.0498855113983154e+00</stageThreshold>
      <weakClassifiers>
        <_>
          <internalNodes>
            0 -1 21 1.2667983770370483e-01</internalNodes>
          <leafValues>
            -9.4931775331497192e-01 1.</leafValues></_>
        <_>
          <internalNodes>
            0 -1 60 -1.0838893242180347e-02</internalNodes>
          <leafValues>
            1.3549567759037018e-01 -8.1893044710159302e-01</leafValues></_>
        <_>
          <internalNodes>
            0 -1 42 1.3843384294887073e-05</internalNodes>
          <leafValues>
            -6.1112719774246216e-01 4.6253573894500732e-01</leafValues></_>
        <_>
          <internalNodes>
            0 -1 20 -1.1957039532717317e-05</internalNodes>
          <leafValues>
            4.2149576544761658e-01 -6.2493616342544556e-01</leafValues></_></weakClassifiers></_>
    <!-- stage 7 -->
    <_>
      <maxWeakCount>5</maxWeakCount>
      <stageThreshold>-2.0659668445587158e+00</stageThreshold>
      <weakClassifiers>
        <_>
          <internalNodes>
            0 -1 59 -5.5222949013113976e-03</internalNodes>
          <leafValues>
            6.6666668653488159e-01 -9.5117187500000000e-01</leafValues></_>
        <_>
          <internalNodes>
            0 -1 43 1.1951088905334473e-02</internalNodes>
          <leafValues>
            -7.9161953926086426e-01 4.1393139958381653e-01</leafValues></_>
        <_>
          <internalNodes>
            0 -1 25 4.4361623004078865e-03</internalNodes>
          <leafValues>
            -7.8270292282104492e-01 1.7413921654224396e-01</leafValues></_>
        <_>
          <internalNodes>
            0 -1 4 -2.0448900759220123e-03</internalNodes>
          <leafValues>
            2.3895663022994995e-01 -8.2311856746673584e-01</leafValues></_>
        <_>
          <internalNodes>
            0 -1 10 -5.2024656906723976e-03</internalNodes>
          <leafValues>
            -1. 2.2057086229324341e-01</leafValues></_></weakClassifiers></_>
    <!-- stage 8 -->
    <_>
      <maxWeakCount>3</maxWeakCount>
      <stageThreshold>-1.8100805282592773e+00</stageThreshold>
      <weakClassifiers>
        <_>
          <internalNodes>
            0 -1 58 -4.3367557227611542e-02</internalNodes>
          <leafValues>
            6.0000002384185791e-01 -9.4926828145980835e-01</leafValues></_>
        <_>
          <internalNodes>
            0 -1 39 3.2146652229130268e-03</internalNodes>
          <leafValues>
            -7.9700404405593872e-01 4.5837476849555969e-02</leafValues></_>
        <_>
          <internalNodes>
            0 -1 36 -1.6721269348636270e-03</internalNodes>
          <leafValues>
            1.1523880809545517e-01 -9.0664970874786377e-01</leafValues></_></weakClassifiers></_>
    <!-- stage 9 -->
    <_>
      <maxWeakCount>5</maxWeakCount>
      <stageThreshold>-1.8921577930450439e+00</stageThreshold>
      <weakClassifiers>
        <_>
          <internalNodes>
            0 -1 28 1.6822461038827896e-02</internalNodes>
          <leafValues>
            -9.5117187500000000e-01 6.6666668653488159e-01</leafValues></_>
        <_>
          <internalNodes>
            0 -1 49 5.4454728960990906e-02</internalNodes>
          <leafValues>
            -7.7115499973297119e-01 4.2346566915512085e-01</leafValues></_>
        <_>
          <internalNodes>
            0 -1 57 -1.1566972825676203e-03</internalNodes>
          <leafValues>
            2.3101986944675446e-01 -7.4836695194244385e-01</leafValues></_>
        <_>
          <internalNodes>
            0 -1 32 1.8441032152622938e-03</internalNodes>
          <leafValues>
            2.2802834212779999e-01 -9.5934408903121948e-01</leafValues></_>
        <_>
          <internalNodes>
            0 -1 41 1.3843384294887073e-05</internalNodes>
          <leafValues>
            -6.2887912988662720e-01 3.8476985692977905e-01</leafValues></_></weakClassifiers></_>
    <!-- stage 10 -->
    <_>
      <maxWeakCount>4</maxWeakCount>
      <stageThreshold>-1.4881204366683960e+00</stageThreshold>
      <weakClassifiers>
        <_>
          <internalNodes>
            0 -1 1 1.8574370443820953e-01</internalNodes>
          <leafValues>
            -9.4926828145980835e-01 6.0000002384185791e-01</leafValues></_>
        <_>
          <internalNodes>
            0 -1 40 -7.9096294939517975e-02</internalNodes>
          <leafValues>
            8.3507686853408813e-01 -7.4555504322052002e-01</leafValues></_>
        <_>
          <internalNodes>
            0 -1 2 6.9943867856636643e-04</internalNodes>
          <leafValues>
            6.1747785657644272e-02 -1.</leafValues></_>
        <_>
          <internalNodes>
            0 -1 44 -3.0770369339734316e-03</internalNodes>
          <leafValues>
            -9.6352332830429077e-01 1.4495508372783661e-01</leafValues></_></weakClassifiers></_>
    <!-- stage 11 -->
    <_>
      <maxWeakCount>4</maxWeakCount>
      <stageThreshold>-2.0879428386688232e+00</stageThreshold>
      <weakClassifiers>
        <_>
          <internalNodes>
            0 -1 47 -4.2447149753570557e-02</internalNodes>
          <leafValues>
            1. -9.4931775331497192e-01</leafValues></_>
        <_>
          <internalNodes>
            0 -1 0 3.7905544741079211e-04</internalNodes>
          <leafValues>
            -9.3912035226821899e-01 -4.0428221225738525e-01</leafValues></_>
        <_>
          <internalNodes>
            0 -1 13 2.0711756951641291e-04</internalNodes>
          <leafValues>
            -7.8093683719635010e-01 1.2843279540538788e-01</leafValues></_>
        <_>
          <internalNodes>
            0 -1 45 -1.2592207640409470e-03</internalNodes>
          <leafValues>
            -8.6277574300765991e-01 1.9341899454593658e-01</leafValues></_></weakClassifiers></_>
    <!-- stage 12 -->
    <_>
      <maxWeakCount>5</maxWeakCount>
      <stageThreshold>-2.0064275264739990e+00</stageThreshold>
      <weakClassifiers>
        <_>
          <internalNodes>
            0 -1 15 1.6814580559730530e-01</internalNodes>
          <leafValues>
            -9.4741964340209961e-01 1.</leafValues></_>
        <_>
          <internalNodes>
            0 -1 48 -4.5026984065771103e-02</internalNodes>
          <leafValues>
            5.9926968812942505e-01 -7.5270706415176392e-01</leafValues></_>
        <_>
          <internalNodes>
            0 -1 24 -1.1330682318657637e-03</internalNodes>
          <leafValues>
            2.2073821723461151e-01 -7.2157466411590576e-01</leafValues></_>
        <_>
          <internalNodes>
            0 -1 63 1.4187322813086212e-04</internalNodes>
          <leafValues>
            2.1160337328910828e-01 -9.3148797750473022e-01</leafValues></_>
        <_>
          <internalNodes>
            0 -1 8 -5.0189755856990814e-03</internalNodes>
          <leafValues>
            -1. 2.0367041230201721e-01</leafValues></_></weakClassifiers></_>
    <!-- stage 13 -->
    <_>
      <maxWeakCount>5</maxWeakCount>
      <stageThreshold>-2.0224139690399170e+00</stageThreshold>
      <weakClassifiers>
        <_>
          <internalNodes>
            0 -1 61 -1.6563661396503448e-02</internalNodes>
          <leafValues>
            1. -9.4931775331497192e-01</leafValues></_>
        <_>
          <internalNodes>
            0 -1 7 -1.7468627542257309e-02</internalNodes>
          <leafValues>
            -5.0339091569185257e-02 -8.2479155063629150e-01</leafValues></_>
        <_>
          <internalNodes>
            0 -1 30 2.9742275364696980e-04</internalNodes>
          <leafValues>
            -6.0360652208328247e-01 2.6564577221870422e-01</leafValues></_>
        <_>
          <internalNodes>
            0 -1 12 4.4324086047708988e-03</internalNodes>
          <leafValues>
            1.8318077921867371e-01 -9.7555661201477051e-01</leafValues></_>
        <_>
          <internalNodes>
            0 -1 29 -6.1182805802673101e-04</internalNodes>
          <leafValues>
            3.3954244852066040e-01 -6.0233134031295776e-01</leafValues></_></weakClassifiers></_>
    <!-- stage 14 -->
    <_>
      <maxWeakCount>4</maxWeakCount>
      <stageThreshold>-2.3016870021820068e+00</stageThreshold>
      <weakClassifiers>
        <_>
          <internalNodes>
            0 -1 27 5.9522204101085663e-03</internalNodes>
          <leafValues>
            -9.5117187500000000e-01 6.6666668653488159e-01</leafValues></_>
        <_>
          <internalNodes>
            0 -1 37 -1.5978652518242598e-03</internalNodes>
          <leafValues>
            -3.0201560258865356e-01 -8.8753038644790649e-01</leafValues></_>
        <_>
          <internalNodes>
            0 -1 53 -3.1314037740230560e-02</internalNodes>
          <leafValues>
            6.2610697746276855e-01 -4.9126586318016052e-01</leafValues></_>
        <_>
          <internalNodes>
            0 -1 24 -1.6852214466780424e-03</internalNodes>
          <leafValues>
            3.8920265436172485e-01 -5.5723363161087036e-01</leafValues></_></weakClassifiers></_>
    <!-- stage 15 -->
    <_>
      <maxWeakCount>4</maxWeakCount>
      <stageThreshold>-1.9388068914413452e+00</stageThreshold>
      <weakClassifiers>
        <_>
          <internalNodes>
            0 -1 17 -3.2718330621719360e-02</internalNodes>
          <leafValues>
            6.6666668653488159e-01 -9.5117187500000000e-01</leafValues></_>
        <_>
          <internalNodes>
            0 -1 38 -1.5318285673856735e-02</internalNodes>
          <leafValues>
            4.1383510828018188e-01 -7.7306962013244629e-01</leafValues></_>
        <_>
          <internalNodes>
            0 -1 14 1.8886327743530273e-03</internalNodes>
          <leafValues>
            -5.7400453090667725e-01 3.1611844897270203e-01</leafValues></_>
        <_>
          <internalNodes>
            0 -1 64 -4.3868501670658588e-03</internalNodes>
          <leafValues>
            4.6867805719375610e-01 -5.3068387508392334e-01</leafValues></_></weakClassifiers></_></stages>
  <features>
    <_>
      <rects>
        <_>
          0 0 4 5 -1.</_>
        <_>
          2 0 2 5 2.</_></rects>
      <tilted>0</tilted></_>
    <_>
      <rects>
        <_>
          0 0 18 5 -1.</_>
        <_>
          9 0 9 5 2.</_></rects>
      <tilted>0</tilted></_>
    <_>
      <rects>
        <_>
          0 2 6 1 -1.</_>
        <_>
          2 2 2 1 3.</_></rects>
      <tilted>0</tilted></_>
    <_>
      <rects>
        <_>
          0 2 24 5 -1.</_>
        <_>
          8 2 8 5 3.</_></rects>
      <tilted>0</tilted></_>
    <_>
      <rects>
        <_>
          0 3 23 2 -1.</_>
        <_>
          0 4 23 1 2.</_></rects>
      <tilted>0</tilted></_>
    <_>
      <rects>
        <_>
          0 5 22 8 -1.</_>
        <_>
          0 9 22 4 2.</_></rects>
      <tilted>0</tilted></_>
    <_>
      <rects>
        <_>
          0 7 18 16 -1.</_>
        <_>
          0 15 18 8 2.</_></rects>
      <tilted>0</tilted></_>
    <_>
      <rects>
        <_>
          0 8 8 8 -1.</_>
        <_>
          0 12 8 4 2.</_></rects>
      <tilted>0</tilted></_>
    <_>
      <rects>
        <_>
          0 10 7 4 -1.</_>
        <_>
          0 12 7 2 2.</_></rects>
      <tilted>0</tilted></_>
    <_>
      <rects>
        <_>
          0 17 24 4 -1.</_>
        <_>
          8 17 8 4 3.</_></rects>
      <tilted>0</tilted></_>
    <_>
      <rects>
        <_>
          0 17 18 4 -1.</_>
        <_>
          0 19 18 2 2.</_></rects>
      <tilted>0</tilted></_>
    <_>
      <rects>
        <_>
          0 20 18 2 -1.</_>
        <_>
          9 20 9 2 2.</_></rects>
      <tilted>0</tilted></_>
    <_>
      <rects>
        <_>
          1 4 18 3 -1.</_>
        <_>
          1 5 18 1 3.</_></rects>
      <tilted>0</tilted></_>
    <_>
      <rects>
        <_>
          1 13 2 3 -1.</_>
        <_>
          2 13 1 3 2.</_></rects>
      <tilted>0</tilted></_>
    <_>
      <rects>
        <_>
          1 21 8 2 -1.</_>
        <_>
          1 21 4 1 2.</_>
        <_>
          5 22 4 1 2.</_></rects>
      <tilted>0</tilted></_>
    <_>
      <rects>
        <_>
          2 5 14 18 -1.</_>
        <_>
          2 11 14 6 3.</_></rects>
      <tilted>0</tilted></_>
    <_>
      <rects>
        <_>
          2 16 2 7 -1.</_>
        <_>
          3 16 1 7 2.</_></rects>
      <tilted>0</tilted></_>
    <_>
      <rects>
        <_>
          2 18 12 4 -1.</_>
        <_>
          2 18 6 2 2.</_>
        <_>
          8 20 6 2 2.</_></rects>
      <tilted>0</tilted></_>
    <_>
      <rects>
        <_>
          4 0 11 10 -1.</_>
        <_>
          4 5 11 5 2.</_></rects>
      <tilted>0</tilted></_>
    <_>
      <rects>
        <_>
          4 5 13 18 -1.</_>
        <_>
          4 11 13 6 3.</_></rects>
      <tilted>0</tilted></_>
    <_>
      <rects>
        <_>
          4 18 1 2 -1.</_>
        <_>
          4 19 1 1 2.</_></rects>
      <tilted>0</tilted></_>
    <_>
      <rects>
        <_>
          5 0 6 21 -1.</_>
        <_>
          7 0 2 21 3.</_></rects>
      <tilted>0</tilted></_>
    <_>
      <rects>
        <_>
          5 2 5 6 -1.</_>
        <_>
          5 5 5 3 2.</_></rects>
      <tilted>0</tilted></_>
    <_>
      <rects>
        <_>
          5 14 4 9 -1.</_>
        <_>
          5 17 4 3 3.</_></rects>
      <tilted>0</tilted></_>
    <_>
      <rects>
        <_>
          6 7 7 3 -1.</_>
        <_>
          6 8 7 1 3.</_></rects>
      <tilted>0</tilted></_>
    <_>
      <rects>
        <_>
          6 8 14 3 -1.</_>
        <_>
          13 8 7 3 2.</_></rects>
      <tilted>0</tilted></_>
    <_>
      <rects>
        <_>
          6 13 4 4 -1.</_>
        <_>
          6 13 2 2 2.</_>
        <_>
          8 15 2 2 2.</_></rects>
      <tilted>0</tilted></_>
    <_>
      <rects>
        <_>
          6 14 2 2 -1.</_>
        <_>
          7 14 1 2 2.</_></rects>
      <tilted>0</tilted></_>
    <_>
      <rects>
        <_>
          6 21 10 2 -1.</_>
        <_>
          6 21 5 1 2.</_>
        <_>
          11 22 5 1 2.</_></rects>
      <tilted>0</tilted></_>
    <_>
      <rects>
        <_>
          7 0 2 12 -1.</_>
        <_>
          7 0 1 6 2.</_>
        <_>
          8 6 1 6 2.</_></rects>
      <tilted>0</tilted></_>
    <_>
      <rects>
        <_>
          7 8 1 2 -1.</_>
        <_>
          7 9 1 1 2.</_></rects>
      <tilted>0</tilted></_>
    <_>
      <rects>
        <_>
          7 12 15 12 -1.</_>
        <_>
          7 18 15 6 2.</_></rects>
      <tilted>0</tilted></_>
    <_>
      <rects>
        <_>
          7 23 12 1 -1.</_>
        <_>
          11 23 4 1 3.</_></rects>
      <tilted>0</tilted></_>
    <_>
      <rects>
        <_>
          8 1 9 8 -1.</_>
        <_>
          11 1 3 8 3.</_></rects>
      <tilted>0</tilted></_>
    <_>
      <rects>
        <_>
          8 1 9 9 -1.</_>
        <_>
          11 1 3 9 3.</_></rects>
      <tilted>0</tilted></_>
    <_>
      <rects>
        <_>
          9 6 6 14 -1.</_>
        <_>
          9 6 3 7 2.</_>
        <_>
          12 13 3 7 2.</_></rects>
      <tilted>0</tilted></_>
    <_>
      <rects>
        <_>
          9 7 8 12 -1.</_>
        <_>
          9 7 4 6 2.</_>
        <_>
          13 13 4 6 2.</_></rects>
      <tilted>0</tilted></_>
    <_>
      <rects>
        <_>
          9 7 6 3 -1.</_>
        <_>
          9 8 6 1 3.</_></rects>
      <tilted>0</tilted></_>
    <_>
      <rects>
        <_>
          9 19 15 3 -1.</_>
        <_>
          9 20 15 1 3.</_></rects>
      <tilted>0</tilted></_>
    <_>
      <rects>
        <_>
          10 7 2 2 -1.</_>
        <_>
          11 7 1 2 2.</_></rects>
      <tilted>0</tilted></_>
    <_>
      <rects>
        <_>
          10 7 9 6 -1.</_>
        <_>
          13 7 3 6 3.</_></rects>
      <tilted>0</tilted></_>
    <_>
      <rects>
        <_>
          10 10 2 2 -1.</_>
        <_>
          10 10 1 1 2.</_>
        <_>
          11 11 1 1 2.</_></rects>
      <tilted>0</tilted></_>
    <_>
      <rects>
        <_>
          10 23 3 1 -1.</_>
        <_>
          11 23 1 1 3.</_></rects>
      <tilted>0</tilted></_>
    <_>
      <rects>
        <_>
          11 4 2 9 -1.</_>
        <_>
          12 4 1 9 2.</_></rects>
      <tilted>0</tilted></_>
    <_>
      <rects>
        <_>
          11 4 13 3 -1.</_>
        <_>
          11 5 13 1 3.</_></rects>
      <tilted>0</tilted></_>
    <_>
      <rects>
        <_>
          11 23 6 1 -1.</_>
        <_>
          13 23 2 1 3.</_></rects>
      <tilted>0</tilted></_>
    <_>
      <rects>
        <_>
          12 1 2 10 -1.</_>
        <_>
          13 1 1 10 2.</_></rects>
      <tilted>0</tilted></_>
    <_>
      <rects>
        <_>
          12 5 6 8 -1.</_>
        <_>
          12 5 3 4 2.</_>
        <_>
          15 9 3 4 2.</_></rects>
      <tilted>0</tilted></_>
    <_>
      <rects>
        <_>
          12 7 6 6 -1.</_>
        <_>
          14 7 2 6 3.</_></rects>
      <tilted>0</tilted></_>
    <_>
      <rects>
        <_>
          12 10 6 8 -1.</_>
        <_>
          12 14 6 4 2.</_></rects>
      <tilted>0</tilted></_>
    <_>
      <rects>
        <_>
          13 0 1 18 -1.</_>
        <_>
          13 9 1 9 2.</_></rects>
      <tilted>0</tilted></_>
    <_>
      <rects>
        <_>
          13 0 5 22 -1.</_>
        <_>
          13 11 5 11 2.</_></rects>
      <tilted>0</tilted></_>
    <_>
      <rects>
        <_>
          13 7 6 16 -1.</_>
        <_>
          13 7 3 8 2.</_>
        <_>
          16 15 3 8 2.</_></rects>
      <tilted>0</tilted></_>
    <_>
      <rects>
        <_>
          13 13 7 8 -1.</_>
        <_>
          13 17 7 4 2.</_></rects>
      <tilted>0</tilted></_>
    <_>
      <rects>
        <_>
          14 2 5 22 -1.</_>
        <_>
          14 13 5 11 2.</_></rects>
      <tilted>0</tilted></_>
    <_>
      <rects>
        <_>
          14 6 2 6 -1.</_>
        <_>
          15 6 1 6 2.</_></rects>
      <tilted>0</tilted></_>
    <_>
      <rects>
        <_>
          16 0 2 24 -1.</_>
        <_>
          16 12 2 12 2.</_></rects>
      <tilted>0</tilted></_>
    <_>
      <rects>
        <_>
          16 19 6 1 -1.</_>
        <_>
          18 19 2 1 3.</_></rects>
      <tilted>0</tilted></_>
    <_>
      <rects>
        <_>
          17 12 3 8 -1.</_>
        <_>
          17 16 3 4 2.</_></rects>
      <tilted>0</tilted></_>
    <_>
      <rects>
        <_>
          17 16 1 3 -1.</_>
        <_>
          17 17 1 1 3.</_></rects>
      <tilted>0</tilted></_>
    <_>
      <rects>
        <_>
          19 5 3 14 -1.</_>
        <_>
          20 5 1 14 3.</_></rects>
      <tilted>0</tilted></_>
    <_>
      <rects>
        <_>
          19 11 2 5 -1.</_>
        <_>
          20 11 1 5 2.</_></rects>
      <tilted>0</tilted></_>
    <_>
      <rects>
        <_>
          20 12 4 12 -1.</_>
        <_>
          22 12 2 12 2.</_></rects>
      <tilted>0</tilted></_>
    <_>
      <rects>
        <_>
          21 0 3 2 -1.</_>
        <_>
          21 1 3 1 2.</_></rects>
      <tilted>0</tilted></_>
    <_>
      <rects>
        <_>
          22 4 2 14 -1.</_>
        <_>
          23 4 1 14 2.</_></rects>
      <tilted>0</tilted></_></features></cascade>
</opencv_storage>
