<?xml version="1.0"?>
<opencv_storage>
<stage5>
  <maxWeakCount>5</maxWeakCount>
  <stageThreshold>-1.3680601119995117e+00</stageThreshold>
  <weakClassifiers>
    <_>
      <internalNodes>
        0 -1 73874 4.3091699481010437e-02</internalNodes>
      <leafValues>
        -8.7346941232681274e-01 3.3333334326744080e-01</leafValues></_>
    <_>
      <internalNodes>
        0 -1 60476 5.5217482149600983e-03</internalNodes>
      <leafValues>
        -6.9555395841598511e-01 3.5290631651878357e-01</leafValues></_>
    <_>
      <internalNodes>
        0 -1 7608 -2.1461255848407745e-02</internalNodes>
      <leafValues>
        3.5241177678108215e-01 -6.7945116758346558e-01</leafValues></_>
    <_>
      <internalNodes>
        0 -1 2433 9.4186700880527496e-03</internalNodes>
      <leafValues>
        1.9598832726478577e-01 -1.</leafValues></_>
    <_>
      <internalNodes>
        0 -1 130545 3.4730003681033850e-03</internalNodes>
      <leafValues>
        -3.4743681550025940e-01 7.2147417068481445e-01</leafValues></_></weakClassifiers></stage5>
</opencv_storage>
