<?xml version="1.0"?>
<opencv_storage>
<stage16>
  <maxWeakCount>5</maxWeakCount>
  <stageThreshold>-1.6394213438034058e+00</stageThreshold>
  <weakClassifiers>
    <_>
      <internalNodes>
        0 -1 107302 -2.2680863738059998e-01</internalNodes>
      <leafValues>
        1. -8.5600000619888306e-01</leafValues></_>
    <_>
      <internalNodes>
        0 -1 57530 -7.7956944704055786e-02</internalNodes>
      <leafValues>
        2.7608019113540649e-01 -6.5454012155532837e-01</leafValues></_>
    <_>
      <internalNodes>
        0 -1 145134 -1.6603380441665649e-02</internalNodes>
      <leafValues>
        2.7902927994728088e-01 -6.2167268991470337e-01</leafValues></_>
    <_>
      <internalNodes>
        0 -1 130315 1.0546872392296791e-02</internalNodes>
      <leafValues>
        1.9067731499671936e-01 -8.7553143501281738e-01</leafValues></_>
    <_>
      <internalNodes>
        0 -1 152923 -5.0029291742248461e-05</internalNodes>
      <leafValues>
        3.0211418867111206e-01 -5.7850325107574463e-01</leafValues></_></weakClassifiers></stage16>
</opencv_storage>
