<?xml version="1.0"?>
<opencv_storage>
<stage9>
  <maxWeakCount>5</maxWeakCount>
  <stageThreshold>-1.1899889707565308e+00</stageThreshold>
  <weakClassifiers>
    <_>
      <internalNodes>
        0 -1 80537 3.4915648400783539e-02</internalNodes>
      <leafValues>
        -8.7346941232681274e-01 3.3333334326744080e-01</leafValues></_>
    <_>
      <internalNodes>
        0 -1 134264 6.2085045501589775e-03</internalNodes>
      <leafValues>
        -6.7969906330108643e-01 2.0514120161533356e-01</leafValues></_>
    <_>
      <internalNodes>
        0 -1 110138 1.8778230296447873e-03</internalNodes>
      <leafValues>
        -5.4222548007965088e-01 3.9139753580093384e-01</leafValues></_>
    <_>
      <internalNodes>
        0 -1 133665 -1.0443059727549553e-04</internalNodes>
      <leafValues>
        4.3610045313835144e-01 -4.9269551038742065e-01</leafValues></_>
    <_>
      <internalNodes>
        0 -1 1216 9.4614727422595024e-03</internalNodes>
      <leafValues>
        -4.1263955831527710e-01 5.1326024532318115e-01</leafValues></_></weakClassifiers></stage9>
</opencv_storage>
