<?xml version="1.0"?>
<opencv_storage>
<stage5>
  <maxWeakCount>5</maxWeakCount>
  <stageThreshold>-9.9024301767349243e-01</stageThreshold>
  <weakClassifiers>
    <_>
      <internalNodes>
        0 -1 10033 -1.4274734072387218e-02</internalNodes>
      <leafValues>
        3.0769231915473938e-01 -6.4102566242218018e-01</leafValues></_>
    <_>
      <internalNodes>
        0 -1 162100 1.0749192442744970e-03</internalNodes>
      <leafValues>
        -3.4118849039077759e-01 5.2743363380432129e-01</leafValues></_>
    <_>
      <internalNodes>
        0 -1 160280 3.3215270377695560e-04</internalNodes>
      <leafValues>
        2.7841773629188538e-01 -5.7833397388458252e-01</leafValues></_>
    <_>
      <internalNodes>
        0 -1 160285 -9.7232306143268943e-04</internalNodes>
      <leafValues>
        -9.0191137790679932e-01 1.7889384925365448e-01</leafValues></_>
    <_>
      <internalNodes>
        0 -1 37914 3.8306161295622587e-03</internalNodes>
      <leafValues>
        -2.5315737724304199e-01 7.0480293035507202e-01</leafValues></_></weakClassifiers></stage5>
</opencv_storage>
