<?xml version="1.0"?>
<opencv_storage>
<stage11>
  <maxWeakCount>10</maxWeakCount>
  <stageThreshold>-1.4033149480819702e+00</stageThreshold>
  <weakClassifiers>
    <_>
      <internalNodes>
        0 -1 1065 2.1235020831227303e-02</internalNodes>
      <leafValues>
        -6.1386138200759888e-01 3.4375000000000000e-01</leafValues></_>
    <_>
      <internalNodes>
        0 -1 25626 2.2437185980379581e-03</internalNodes>
      <leafValues>
        -2.7451860904693604e-01 5.3614163398742676e-01</leafValues></_>
    <_>
      <internalNodes>
        0 -1 130912 -3.6113718524575233e-03</internalNodes>
      <leafValues>
        4.6958011388778687e-01 -2.6287591457366943e-01</leafValues></_>
    <_>
      <internalNodes>
        0 -1 124709 -4.8819324001669884e-03</internalNodes>
      <leafValues>
        5.7638800144195557e-01 -1.9866429269313812e-01</leafValues></_>
    <_>
      <internalNodes>
        0 -1 161318 1.3315948890522122e-03</internalNodes>
      <leafValues>
        -3.3901003003120422e-01 3.2510653138160706e-01</leafValues></_>
    <_>
      <internalNodes>
        0 -1 38652 -9.2636998742818832e-03</internalNodes>
      <leafValues>
        -7.8524327278137207e-01 1.6766871511936188e-01</leafValues></_>
    <_>
      <internalNodes>
        0 -1 26126 -1.9908472895622253e-03</internalNodes>
      <leafValues>
        -5.0022345781326294e-01 2.5246161222457886e-01</leafValues></_>
    <_>
      <internalNodes>
        0 -1 135815 3.9036930538713932e-03</internalNodes>
      <leafValues>
        -1.9593663513660431e-01 6.3372683525085449e-01</leafValues></_>
    <_>
      <internalNodes>
        0 -1 151286 -9.8544955253601074e-03</internalNodes>
      <leafValues>
        7.6607865095138550e-01 -1.3549959659576416e-01</leafValues></_>
    <_>
      <internalNodes>
        0 -1 98177 -1.2507887557148933e-02</internalNodes>
      <leafValues>
        -7.0763599872589111e-01 1.9692115485668182e-01</leafValues></_></weakClassifiers></stage11>
</opencv_storage>
